SVM-light Version V6.20
2 # kernel type
3 # kernel parameter -d 
9.1896 # kernel parameter -g 
1 # kernel parameter -s 
1 # kernel parameter -r 
empty# kernel parameter -u 
5 # highest feature index 
24 # number of training documents 
2001 # number of support vectors plus 1 
0 # threshold b, each following line is a SV (starting with alpha*y)
0.65732830797762631 1:0.95359999 2:0.85280001 3:0.82770002 4:0.98140001 #
0.43821887198508419 1:0.95279998 2:0.84130001 3:0.7597 4:0.9806 #
0.2191094359925421 1:0.95840001 2:0.86330003 3:0.87330002 4:0.99040002 #
-0.2191094359925421 1:0.94800001 2:0.8301 3:0.75190002 4:0.97439998 #
-1.0955471799627106 1:0.93040001 2:0.86769998 3:0.8635 4:0.96969998 #
-0 1:0.95069999 2:0.85509998 3:0.82160002 4:0.9813 #
1.0955471799627106 1:0.96100003 2:0.84310001 3:0.7852 4:0.98409998 #
-1.0955471799627106 1:0.94630003 2:0.89389998 3:1 4:1 #
0.2191094359925421 1:0.95359999 2:0.85280001 3:0.82770002 4:0.98140001 #
-0.43821887198508419 1:0.95279998 2:0.84130001 3:0.7597 4:0.9806 #
1.0955471799627106 1:0.95840001 2:0.86330003 3:0.87330002 4:0.99040002 #
-1.0955471799627106 1:0.94800001 2:0.8301 3:0.75190002 4:0.97439998 #
-1.5337660519477949 1:0.93040001 2:0.86769998 3:0.8635 4:0.96969998 #
-0.43821887198508419 1:0.95069999 2:0.85509998 3:0.82160002 4:0.9813 #
0.65732830797762631 1:0.96100003 2:0.84310001 3:0.7852 4:0.98409998 #
1.5337660519477949 1:0.94630003 2:0.89389998 3:1 4:1 #
-1.0955471799627106 1:0.84909999 2:0.85259998 3:0.84469998 4:0.90880001 #
-0.2191094359925421 1:0.80580002 2:0.76859999 3:0.44060001 4:0.9314 #
-1.0955471799627106 1:0.81080002 2:0.87059999 3:0.99910003 4:0.97320002 #
1.0955471799627106 1:0.77829999 2:0.79280001 3:0.4973 4:0.85720003 #
0.2191094359925421 1:0.82440001 2:0.85720003 3:0.86879998 4:0.9012 #
1.0955471799627106 1:0.82279998 2:0.81819999 3:0.59799999 4:0.88779998 #
1.0955471799627106 1:0.833 2:0.79790002 3:0.4815 4:0.91479999 #
-1.0955471799627106 1:0.84509999 2:0.89569998 3:0.99790001 4:0.921 #
-0.65732830797762631 1:0.84909999 2:0.85259998 3:0.84469998 4:0.90880001 #
-1.0955471799627106 1:0.80580002 2:0.76859999 3:0.44060001 4:0.9314 #
0.2191094359925421 1:0.81080002 2:0.87059999 3:0.99910003 4:0.97320002 #
-1.5337660519477949 1:0.77829999 2:0.79280001 3:0.4973 4:0.85720003 #
0.65732830797762631 1:0.82440001 2:0.85720003 3:0.86879998 4:0.9012 #
-0.2191094359925421 1:0.82279998 2:0.81819999 3:0.59799999 4:0.88779998 #
1.0955471799627106 1:0.833 2:0.79790002 3:0.4815 4:0.91479999 #
1.5337660519477949 1:0.84509999 2:0.89569998 3:0.99790001 4:0.921 #
0.2191094359925421 1:0.9357 2:0.85460001 3:0.89480001 4:0.96880001 #
-0.65732830797762631 1:0.94160002 2:0.84200001 3:0.73680001 4:0.96799999 #
1.5337660519477949 1:0.8563 2:0.86470002 3:0.99379998 4:0.94700003 #
0.65732830797762631 1:0.9339 2:0.83630002 3:0.7572 4:0.92500001 #
-0.2191094359925421 1:0.93049997 2:0.87019998 3:0.97409999 4:0.98140001 #
-0.2191094359925421 1:0.94450003 2:0.85769999 3:0.87400001 4:0.96390003 #
0.2191094359925421 1:0.94150001 2:0.8459 3:0.76679999 4:0.96689999 #
-1.5337660519477949 1:0.91970003 2:0.91850001 3:0.90979999 4:0.93769997 #
1.0955471799627106 1:0.9357 2:0.85460001 3:0.89480001 4:0.96880001 #
-1.0955471799627106 1:0.94160002 2:0.84200001 3:0.73680001 4:0.96799999 #
0.2191094359925421 1:0.8563 2:0.86470002 3:0.99379998 4:0.94700003 #
-0.65732830797762631 1:0.9339 2:0.83630002 3:0.7572 4:0.92500001 #
1.5337660519477949 1:0.93049997 2:0.87019998 3:0.97409999 4:0.98140001 #
0.65732830797762631 1:0.94450003 2:0.85769999 3:0.87400001 4:0.96390003 #
-0.2191094359925421 1:0.94150001 2:0.8459 3:0.76679999 4:0.96689999 #
-1.5337660519477949 1:0.91970003 2:0.91850001 3:0.90979999 4:0.93769997 #
0.87643774397016838 1:0.94770002 2:0.87480003 3:0.4903 4:0.83679998 #
-0.2191094359925421 1:0.95749998 2:0.84390002 3:0.6322 4:0.96170002 #
0.65732830797762631 1:0.91670001 2:0.85839999 3:0.45519999 4:0.82929999 #
-0.65732830797762631 1:0.95090002 2:0.8423 3:0.75150001 4:0.96499997 #
-1.3146566159552526 1:0.92640001 2:0.83130002 3:0.9497 4:0.9813 #
-0.65732830797762631 1:0.95480001 2:0.84600002 3:0.7902 4:0.96859998 #
0.2191094359925421 1:0.95730001 2:0.84509999 3:0.73379999 4:0.97299999 #
1.0955471799627106 1:0.9131 2:0.90539998 3:0.56739998 4:0.86360002 #
-0.43821887198508419 1:0.94770002 2:0.87480003 3:0.4903 4:0.83679998 #
1.0955471799627106 1:0.95749998 2:0.84390002 3:0.6322 4:0.96170002 #
-1.5337660519477949 1:0.91670001 2:0.85839999 3:0.45519999 4:0.82929999 #
0.2191094359925421 1:0.95090002 2:0.8423 3:0.75150001 4:0.96499997 #
-0.43821887198508419 1:0.92640001 2:0.83130002 3:0.9497 4:0.9813 #
0.65732830797762631 1:0.95480001 2:0.84600002 3:0.7902 4:0.96859998 #
1.5337660519477949 1:0.95730001 2:0.84509999 3:0.73379999 4:0.97299999 #
-1.0955471799627106 1:0.9131 2:0.90539998 3:0.56739998 4:0.86360002 #
0.2191094359925421 1:0.93690002 2:0.8441 3:0.71569997 4:0.89209998 #
0.43821887198508419 1:0.94160002 2:0.83560002 3:0.73089999 4:0.91229999 #
0.43821887198508419 1:0.92930001 2:0.88800001 3:0.74339998 4:0.92540002 #
1.0955471799627106 1:0.95069999 2:0.83939999 3:0.7482 4:0.90820003 #
-0.2191094359925421 1:0.92119998 2:0.85909998 3:0.7076 4:0.88859999 #
-1.0955471799627106 1:0.94700003 2:0.85979998 3:0.8739 4:0.96509999 #
0.2191094359925421 1:0.95819998 2:0.8409 3:0.78189999 4:0.94880003 #
-1.0955471799627106 1:0.92869997 2:0.90060002 3:0.99980003 4:0.99790001 #
-1.0955471799627106 1:0.93690002 2:0.8441 3:0.71569997 4:0.89209998 #
-0.43821887198508419 1:0.94160002 2:0.83560002 3:0.73089999 4:0.91229999 #
-0.43821887198508419 1:0.92930001 2:0.88800001 3:0.74339998 4:0.92540002 #
0.2191094359925421 1:0.95069999 2:0.83939999 3:0.7482 4:0.90820003 #
-1.5337660519477949 1:0.92119998 2:0.85909998 3:0.7076 4:0.88859999 #
1.0955471799627106 1:0.94700003 2:0.85979998 3:0.8739 4:0.96509999 #
0.65732830797762631 1:0.95819998 2:0.8409 3:0.78189999 4:0.94880003 #
1.5337660519477949 1:0.92869997 2:0.90060002 3:0.99980003 4:0.99790001 #
1.0955471799627106 1:0.9569 2:0.85100001 3:0.78719997 4:0.91479999 #
-1.5337660519477949 1:0.95539999 2:0.8373 3:0.68809998 4:0.93300003 #
1.5337660519477949 1:0.95899999 2:0.86799997 3:0.7985 4:0.91460001 #
0.2191094359925421 1:0.94940001 2:0.83700001 3:0.75040001 4:0.91869998 #
-1.0955471799627106 1:0.95740002 2:0.85110003 3:0.8021 4:0.91780001 #
-0.2191094359925421 1:0.95840001 2:0.84539998 3:0.78390002 4:0.91750002 #
-0.65732830797762631 1:0.96329999 2:0.83920002 3:0.72680002 4:0.93120003 #
0.65732830797762631 1:0.935 2:0.898 3:0.83829999 4:0.90319997 #
1.0955471799627106 1:0.9569 2:0.85100001 3:0.78719997 4:0.91479999 #
-1.5337660519477949 1:0.95539999 2:0.8373 3:0.68809998 4:0.93300003 #
1.5337660519477949 1:0.95899999 2:0.86799997 3:0.7985 4:0.91460001 #
0.2191094359925421 1:0.94940001 2:0.83700001 3:0.75040001 4:0.91869998 #
-1.0955471799627106 1:0.95740002 2:0.85110003 3:0.8021 4:0.91780001 #
-0.2191094359925421 1:0.95840001 2:0.84539998 3:0.78390002 4:0.91750002 #
-0.65732830797762631 1:0.96329999 2:0.83920002 3:0.72680002 4:0.93120003 #
0.65732830797762631 1:0.935 2:0.898 3:0.83829999 4:0.90319997 #
-0.2191094359925421 1:0.80199999 2:0.8075 3:0.58579999 4:0.78979999 #
0.65732830797762631 1:0.7899 2:0.80339998 3:0.72839999 4:0.82520002 #
-0.87643774397016838 1:0.80440003 2:0.88940001 3:0.79720002 4:0.7543 #
1.0955471799627106 1:0.77340001 2:0.75690001 3:0.4989 4:0.67619997 #
-0.2191094359925421 1:0.7834 2:0.81349999 3:0.68699998 4:0.82389998 #
-0.2191094359925421 1:0.84869999 2:0.83990002 3:0.74860001 4:0.86140001 #
0.87643774397016838 1:0.82099998 2:0.79170001 3:0.59619999 4:0.80629998 #
-1.0955471799627106 1:0.82499999 2:0.91219997 3:0.77920002 4:0.88679999 #
-1.0955471799627106 1:0.80199999 2:0.8075 3:0.58579999 4:0.78979999 #
-0.65732830797762631 1:0.7899 2:0.80339998 3:0.72839999 4:0.82520002 #
0.43821887198508419 1:0.80440003 2:0.88940001 3:0.79720002 4:0.7543 #
-0.2191094359925421 1:0.77340001 2:0.75690001 3:0.4989 4:0.67619997 #
-1.5337660519477949 1:0.7834 2:0.81349999 3:0.68699998 4:0.82389998 #
1.5337660519477949 1:0.84869999 2:0.83990002 3:0.74860001 4:0.86140001 #
0.43821887198508419 1:0.82099998 2:0.79170001 3:0.59619999 4:0.80629998 #
1.0955471799627106 1:0.82499999 2:0.91219997 3:0.77920002 4:0.88679999 #
0.65732830797762631 1:0.73269999 2:0.77670002 3:0.53060001 4:0.82590002 #
-0.65732830797762631 1:0.77770001 2:0.76069999 3:0.4508 4:0.81660002 #
-0.2191094359925421 1:0.77590001 2:0.84579998 3:0.4763 4:0.7744 #
1.0955471799627106 1:0.76920003 2:0.7586 3:0.5007 4:0.84670001 #
0.2191094359925421 1:0.73989999 2:0.76660001 3:0.5424 4:0.77759999 #
0.65732830797762631 1:0.8233 2:0.78509998 3:0.56770003 4:0.8556 #
-0.65732830797762631 1:0.80669999 2:0.77359998 3:0.51190001 4:0.8495 #
-1.0955471799627106 1:0.83639997 2:0.8908 3:0.61129999 4:0.7974 #
-0.65732830797762631 1:0.73269999 2:0.77670002 3:0.53060001 4:0.82590002 #
-1.0955471799627106 1:0.77770001 2:0.76069999 3:0.4508 4:0.81660002 #
-0.2191094359925421 1:0.77590001 2:0.84579998 3:0.4763 4:0.7744 #
0.65732830797762631 1:0.76920003 2:0.7586 3:0.5007 4:0.84670001 #
-1.5337660519477949 1:0.73989999 2:0.76660001 3:0.5424 4:0.77759999 #
1.5337660519477949 1:0.8233 2:0.78509998 3:0.56770003 4:0.8556 #
0.2191094359925421 1:0.80669999 2:0.77359998 3:0.51190001 4:0.8495 #
1.0955471799627106 1:0.83639997 2:0.8908 3:0.61129999 4:0.7974 #
-0.65732830797762631 1:0.94050002 2:0.84490001 3:0.7475 4:0.90259999 #
-0.65732830797762631 1:0.93919998 2:0.83859998 3:0.72799999 4:0.8926 #
0.2191094359925421 1:0.92049998 2:0.88569999 3:0.75980002 4:0.8854 #
0.2191094359925421 1:0.94730002 2:0.83840001 3:0.75019997 4:0.90499997 #
-1.0955471799627106 1:0.91640002 2:0.85039997 3:0.75169998 4:0.91509998 #
0.87643774397016838 1:0.95200002 2:0.8549 3:0.77399999 4:0.926 #
1.5337660519477949 1:0.95109999 2:0.84170002 3:0.72479999 4:0.903 #
-0.43821887198508419 1:0.95039999 2:0.89289999 3:0.81419998 4:0.88770002 #
-0.65732830797762631 1:0.94050002 2:0.84490001 3:0.7475 4:0.90259999 #
-1.0955471799627106 1:0.93919998 2:0.83859998 3:0.72799999 4:0.8926 #
-0.2191094359925421 1:0.92049998 2:0.88569999 3:0.75980002 4:0.8854 #
0.2191094359925421 1:0.94730002 2:0.83840001 3:0.75019997 4:0.90499997 #
-1.5337660519477949 1:0.91640002 2:0.85039997 3:0.75169998 4:0.91509998 #
0.87643774397016838 1:0.95200002 2:0.8549 3:0.77399999 4:0.926 #
1.5337660519477949 1:0.95109999 2:0.84170002 3:0.72479999 4:0.903 #
0.87643774397016838 1:0.95039999 2:0.89289999 3:0.81419998 4:0.88770002 #
-0.2191094359925421 1:0.82309997 2:0.80690002 3:0.68169999 4:0.91409999 #
-0.2191094359925421 1:0.8362 2:0.79049999 3:0.50880003 4:0.93480003 #
-1.0955471799627106 1:0.78390002 2:0.88770002 3:1 4:0.99739999 #
1.5337660519477949 1:0.76630002 2:0.78280002 3:0.5165 4:0.81770003 #
1.0955471799627106 1:0.78399998 2:0.78380001 3:0.76300001 4:0.94630003 #
0.2191094359925421 1:0.83270001 2:0.82700002 3:0.85000002 4:0.96390003 #
-0 1:0.83929998 2:0.7967 3:0.57889998 4:0.94749999 #
-1.3146566159552526 1:0.86589998 2:0.8969 3:1 4:1 #
-0.65732830797762631 1:0.82309997 2:0.80690002 3:0.68169999 4:0.91409999 #
-0.2191094359925421 1:0.8362 2:0.79049999 3:0.50880003 4:0.93480003 #
-1.0955471799627106 1:0.78390002 2:0.88770002 3:1 4:0.99739999 #
-1.5337660519477949 1:0.76630002 2:0.78280002 3:0.5165 4:0.81770003 #
0.2191094359925421 1:0.78399998 2:0.78380001 3:0.76300001 4:0.94630003 #
1.5337660519477949 1:0.83270001 2:0.82700002 3:0.85000002 4:0.96390003 #
0.87643774397016838 1:0.83929998 2:0.7967 3:0.57889998 4:0.94749999 #
0.87643774397016838 1:0.86589998 2:0.8969 3:1 4:1 #
0.2191094359925421 1:0.9242 2:0.86849999 3:0.84170002 4:0.81730002 #
-0.2191094359925421 1:0.91500002 2:0.84509999 3:0.7798 4:0.84219998 #
1.5337660519477949 1:0.84100002 2:0.90560001 3:0.68720001 4:0.82520002 #
0.2191094359925421 1:0.9285 2:0.82779998 3:0.75089997 4:0.84280002 #
-0.65732830797762631 1:0.91119999 2:0.87129998 3:0.78380001 4:0.83279997 #
-1.0955471799627106 1:0.94569999 2:0.86229998 3:0.83469999 4:0.85170001 #
0.65732830797762631 1:0.93849999 2:0.85000002 3:0.82690001 4:0.84759998 #
-0.65732830797762631 1:0.93129998 2:0.90009999 3:0.90460002 4:0.83819997 #
0.2191094359925421 1:0.9242 2:0.86849999 3:0.84170002 4:0.81730002 #
-1.0955471799627106 1:0.91500002 2:0.84509999 3:0.7798 4:0.84219998 #
-0.65732830797762631 1:0.84100002 2:0.90560001 3:0.68720001 4:0.82520002 #
-0.2191094359925421 1:0.9285 2:0.82779998 3:0.75089997 4:0.84280002 #
-1.5337660519477949 1:0.91119999 2:0.87129998 3:0.78380001 4:0.83279997 #
0.65732830797762631 1:0.94569999 2:0.86229998 3:0.83469999 4:0.85170001 #
1.0955471799627106 1:0.93849999 2:0.85000002 3:0.82690001 4:0.84759998 #
1.5337660519477949 1:0.93129998 2:0.90009999 3:0.90460002 4:0.83819997 #
-1.5337660519477949 1:0.9368 2:0.85219997 3:0.91289997 4:0.96749997 #
-0.2191094359925421 1:0.94630003 2:0.84619999 3:0.85729998 4:0.96560001 #
0.65732830797762631 1:0.94989997 2:0.88620001 3:0.95599997 4:0.95560002 #
0.65732830797762631 1:0.9501 2:0.82450002 3:0.75129998 4:0.96390003 #
-0.65732830797762631 1:0.93159997 2:0.8567 3:0.9418 4:0.95349997 #
-0.2191094359925421 1:0.95829999 2:0.85619998 3:0.88239998 4:0.96079999 #
0.65732830797762631 1:0.96179998 2:0.84609997 3:0.83590001 4:0.97240001 #
0.65732830797762631 1:0.95349997 2:0.89020002 3:0.958 4:0.95770001 #
-1.5337660519477949 1:0.9368 2:0.85219997 3:0.91289997 4:0.96749997 #
-0.65732830797762631 1:0.94630003 2:0.84619999 3:0.85729998 4:0.96560001 #
1.0955471799627106 1:0.94989997 2:0.88620001 3:0.95599997 4:0.95560002 #
-1.0955471799627106 1:0.9501 2:0.82450002 3:0.75129998 4:0.96390003 #
-0.2191094359925421 1:0.93159997 2:0.8567 3:0.9418 4:0.95349997 #
0.2191094359925421 1:0.95829999 2:0.85619998 3:0.88239998 4:0.96079999 #
0.65732830797762631 1:0.96179998 2:0.84609997 3:0.83590001 4:0.97240001 #
1.5337660519477949 1:0.95349997 2:0.89020002 3:0.958 4:0.95770001 #
0.2191094359925421 1:0.94529998 2:0.8193 3:0.77569997 4:0.9612 #
0.65732830797762631 1:0.95179999 2:0.80849999 3:0.59420002 4:0.99730003 #
-1.0955471799627106 1:0.91570002 2:0.88080001 3:0.88690001 4:0.9752 #
0.2191094359925421 1:0.9522 2:0.80980003 3:0.7507 4:0.95969999 #
0.2191094359925421 1:0.93000001 2:0.82749999 3:0.74529999 4:0.94620001 #
0.2191094359925421 1:0.96340001 2:0.84920001 3:0.82370001 4:0.97119999 #
1.0955471799627106 1:0.9605 2:0.81760001 3:0.65259999 4:0.99379998 #
-1.5337660519477949 1:0.93400002 2:0.90350002 3:0.99970001 4:0.99949998 #
-0.2191094359925421 1:0.94529998 2:0.8193 3:0.77569997 4:0.9612 #
0.2191094359925421 1:0.95179999 2:0.80849999 3:0.59420002 4:0.99730003 #
-1.5337660519477949 1:0.91570002 2:0.88080001 3:0.88690001 4:0.9752 #
-0.65732830797762631 1:0.9522 2:0.80980003 3:0.7507 4:0.95969999 #
-1.0955471799627106 1:0.93000001 2:0.82749999 3:0.74529999 4:0.94620001 #
1.0955471799627106 1:0.96340001 2:0.84920001 3:0.82370001 4:0.97119999 #
1.5337660519477949 1:0.9605 2:0.81760001 3:0.65259999 4:0.99379998 #
0.65732830797762631 1:0.93400002 2:0.90350002 3:0.99970001 4:0.99949998 #
0.2191094359925421 1:0.94309998 2:0.82770002 3:0.77689999 4:0.92479998 #
-0.2191094359925421 1:0.92909998 2:0.81849998 3:0.69080001 4:0.97009999 #
-1.0955471799627106 1:0.91960001 2:0.88249999 3:0.95279998 4:0.99479997 #
1.0955471799627106 1:0.95349997 2:0.82560003 3:0.7507 4:0.94999999 #
-0.65732830797762631 1:0.91970003 2:0.82870001 3:0.77899998 4:0.9461 #
0.65732830797762631 1:0.9483 2:0.83499998 3:0.75700003 4:0.95209998 #
1.3146566159552526 1:0.95499998 2:0.82789999 3:0.75209999 4:0.95929998 #
-1.3146566159552526 1:0.93419999 2:0.90369999 3:0.9364 4:0.98089999 #
-0.65732830797762631 1:0.94309998 2:0.82770002 3:0.77689999 4:0.92479998 #
-1.0955471799627106 1:0.92909998 2:0.81849998 3:0.69080001 4:0.97009999 #
1.5337660519477949 1:0.91960001 2:0.88249999 3:0.95279998 4:0.99479997 #
0.2191094359925421 1:0.95349997 2:0.82560003 3:0.7507 4:0.94999999 #
-1.5337660519477949 1:0.91970003 2:0.82870001 3:0.77899998 4:0.9461 #
-0.2191094359925421 1:0.9483 2:0.83499998 3:0.75700003 4:0.95209998 #
0.87643774397016838 1:0.95499998 2:0.82789999 3:0.75209999 4:0.95929998 #
0.87643774397016838 1:0.93419999 2:0.90369999 3:0.9364 4:0.98089999 #
1.0955471799627106 1:0.82209998 2:0.84750003 3:0.40130001 4:0.83939999 #
-0 1:0.83850002 2:0.7507 3:0.42919999 4:0.9964 #
-1.3146566159552526 1:0.88410002 2:0.87910002 3:0.94749999 4:0.99049997 #
1.0955471799627106 1:0.78170002 2:0.74760002 3:0.5029 4:0.96020001 #
0.2191094359925421 1:0.86430001 2:0.81199998 3:0.86839998 4:0.99089998 #
-0.65732830797762631 1:0.88249999 2:0.81400001 3:0.71929997 4:0.98970002 #
0.65732830797762631 1:0.83530003 2:0.7489 3:0.36610001 4:0.9946 #
-1.0955471799627106 1:0.89819998 2:0.89109999 3:0.995 4:1 #
-1.0955471799627106 1:0.82209998 2:0.84750003 3:0.40130001 4:0.83939999 #
0.43821887198508419 1:0.83850002 2:0.7507 3:0.42919999 4:0.9964 #
0.43821887198508419 1:0.88410002 2:0.87910002 3:0.94749999 4:0.99049997 #
-1.5337660519477949 1:0.78170002 2:0.74760002 3:0.5029 4:0.96020001 #
1.0955471799627106 1:0.86430001 2:0.81199998 3:0.86839998 4:0.99089998 #
-0.65732830797762631 1:0.88249999 2:0.81400001 3:0.71929997 4:0.98970002 #
-0.2191094359925421 1:0.83530003 2:0.7489 3:0.36610001 4:0.9946 #
1.5337660519477949 1:0.89819998 2:0.89109999 3:0.995 4:1 #
0.2191094359925421 1:0.92339998 2:0.82709998 3:0.66900003 4:0.94440001 #
-0.2191094359925421 1:0.93849999 2:0.8251 3:0.62819999 4:0.96259999 #
-0.65732830797762631 1:0.87309998 2:0.8732 3:0.99879998 4:0.99879998 #
-0.65732830797762631 1:0.94440001 2:0.83630002 3:0.75019997 4:0.96899998 #
1.0955471799627106 1:0.89410001 2:0.82239997 3:0.56519997 4:0.91750002 #
-0 1:0.94910002 2:0.85699999 3:0.80040002 4:0.95899999 #
1.0955471799627106 1:0.94190001 2:0.83789998 3:0.70749998 4:0.98540002 #
-0.87643774397016838 1:0.93519998 2:0.89420003 3:0.9249 4:0.95590001 #
-1.0955471799627106 1:0.92339998 2:0.82709998 3:0.66900003 4:0.94440001 #
-0.2191094359925421 1:0.93849999 2:0.8251 3:0.62819999 4:0.96259999 #
0.2191094359925421 1:0.87309998 2:0.8732 3:0.99879998 4:0.99879998 #
-0.65732830797762631 1:0.94440001 2:0.83630002 3:0.75019997 4:0.96899998 #
-1.5337660519477949 1:0.89410001 2:0.82239997 3:0.56519997 4:0.91750002 #
0.87643774397016838 1:0.94910002 2:0.85699999 3:0.80040002 4:0.95899999 #
1.5337660519477949 1:0.94190001 2:0.83789998 3:0.70749998 4:0.98540002 #
0.87643774397016838 1:0.93519998 2:0.89420003 3:0.9249 4:0.95590001 #
0.2191094359925421 1:0.94529998 2:0.87779999 3:0.8161 4:0.97439998 #
0.2191094359925421 1:0.95639998 2:0.85799998 3:0.55599999 4:0.92570001 #
1.0955471799627106 1:0.87290001 2:0.85900003 3:0.78420001 4:0.96280003 #
-1.5337660519477949 1:0.94090003 2:0.83560002 3:0.75050002 4:0.94980001 #
1.0955471799627106 1:0.88099998 2:0.89139998 3:0.77990001 4:0.97439998 #
-1.0955471799627106 1:0.92919999 2:0.86299998 3:0.85180002 4:0.98049998 #
-0.65732830797762631 1:0.95020002 2:0.85219997 3:0.7173 4:0.95590001 #
0.65732830797762631 1:0.93940002 2:0.90469998 3:0.67089999 4:0.95529997 #
1.0955471799627106 1:0.94529998 2:0.87779999 3:0.8161 4:0.97439998 #
0.65732830797762631 1:0.95639998 2:0.85799998 3:0.55599999 4:0.92570001 #
-0.65732830797762631 1:0.87290001 2:0.85900003 3:0.78420001 4:0.96280003 #
-1.5337660519477949 1:0.94090003 2:0.83560002 3:0.75050002 4:0.94980001 #
0.2191094359925421 1:0.88099998 2:0.89139998 3:0.77990001 4:0.97439998 #
-1.0955471799627106 1:0.92919999 2:0.86299998 3:0.85180002 4:0.98049998 #
-0.2191094359925421 1:0.95020002 2:0.85219997 3:0.7173 4:0.95590001 #
1.5337660519477949 1:0.93940002 2:0.90469998 3:0.67089999 4:0.95529997 #
-0.43821887198508419 1:0.96499997 2:0.85399997 3:0.86769998 4:0.98280001 #
-0 1:0.95959997 2:0.84420002 3:0.86070001 4:0.98100001 #
0.65732830797762631 1:0.94480002 2:0.88440001 3:0.949 4:0.99110001 #
0.65732830797762631 1:0.9497 2:0.82800001 3:0.74839997 4:0.95660001 #
0.2191094359925421 1:0.94230002 2:0.85430002 3:0.80409998 4:0.95969999 #
-0.65732830797762631 1:0.96249998 2:0.84789997 3:0.81720001 4:0.97369999 #
-0.65732830797762631 1:0.9594 2:0.83850002 3:0.83829999 4:0.97970003 #
0.2191094359925421 1:0.93800002 2:0.92439997 3:1 4:1 #
0.43821887198508419 1:0.96499997 2:0.85399997 3:0.86769998 4:0.98280001 #
0.43821887198508419 1:0.95959997 2:0.84420002 3:0.86070001 4:0.98100001 #
1.5337660519477949 1:0.94480002 2:0.88440001 3:0.949 4:0.99110001 #
-1.5337660519477949 1:0.9497 2:0.82800001 3:0.74839997 4:0.95660001 #
-1.0955471799627106 1:0.94230002 2:0.85430002 3:0.80409998 4:0.95969999 #
-0.65732830797762631 1:0.96249998 2:0.84789997 3:0.81720001 4:0.97369999 #
-0.2191094359925421 1:0.9594 2:0.83850002 3:0.83829999 4:0.97970003 #
1.0955471799627106 1:0.93800002 2:0.92439997 3:1 4:1 #
0.2191094359925421 1:0.78289998 2:0.78829998 3:0.5183 4:0.83639997 #
-1.0955471799627106 1:0.80430001 2:0.75220001 3:0.45289999 4:0.92519999 #
1.0955471799627106 1:0.60799998 2:0.76599997 3:0.60339999 4:0.89219999 #
1.0955471799627106 1:0.78259999 2:0.77020001 3:0.50770003 4:0.79930001 #
-0.65732830797762631 1:0.77429998 2:0.79939997 3:0.5686 4:0.87879997 #
0.65732830797762631 1:0.81440002 2:0.79339999 3:0.55419999 4:0.85610002 #
-0.65732830797762631 1:0.84170002 2:0.78350002 3:0.49290001 4:0.85729998 #
-0.65732830797762631 1:0.83429998 2:0.8973 3:0.64609998 4:0.9005 #
-0.65732830797762631 1:0.78289998 2:0.78829998 3:0.5183 4:0.83639997 #
-1.0955471799627106 1:0.80430001 2:0.75220001 3:0.45289999 4:0.92519999 #
-0.2191094359925421 1:0.60799998 2:0.76599997 3:0.60339999 4:0.89219999 #
0.2191094359925421 1:0.78259999 2:0.77020001 3:0.50770003 4:0.79930001 #
-1.5337660519477949 1:0.77429998 2:0.79939997 3:0.5686 4:0.87879997 #
0.65732830797762631 1:0.81440002 2:0.79339999 3:0.55419999 4:0.85610002 #
1.0955471799627106 1:0.84170002 2:0.78350002 3:0.49290001 4:0.85729998 #
1.5337660519477949 1:0.83429998 2:0.8973 3:0.64609998 4:0.9005 #
-0.2191094359925421 1:0.9289 2:0.8308 3:0.65890002 4:0.95649999 #
1.5337660519477949 1:0.93970001 2:0.82200003 3:0.64219999 4:0.95910001 #
0.2191094359925421 1:0.90319997 2:0.88499999 3:0.9235 4:0.98989999 #
0.65732830797762631 1:0.9465 2:0.83209997 3:0.74860001 4:0.97149998 #
-0.65732830797762631 1:0.90509999 2:0.82630002 3:0.52859998 4:0.93330002 #
-0.2191094359925421 1:0.94459999 2:0.84490001 3:0.72549999 4:0.96929997 #
0.2191094359925421 1:0.95200002 2:0.82709998 3:0.6785 4:0.97759998 #
-1.5337660519477949 1:0.9321 2:0.92629999 3:1 4:1 #
-1.0955471799627106 1:0.9289 2:0.8308 3:0.65890002 4:0.95649999 #
1.5337660519477949 1:0.93970001 2:0.82200003 3:0.64219999 4:0.95910001 #
1.0955471799627106 1:0.90319997 2:0.88499999 3:0.9235 4:0.98989999 #
0.2191094359925421 1:0.9465 2:0.83209997 3:0.74860001 4:0.97149998 #
-1.5337660519477949 1:0.90509999 2:0.82630002 3:0.52859998 4:0.93330002 #
-0.65732830797762631 1:0.94459999 2:0.84490001 3:0.72549999 4:0.96929997 #
-0.2191094359925421 1:0.95200002 2:0.82709998 3:0.6785 4:0.97759998 #
0.65732830797762631 1:0.9321 2:0.92629999 3:1 4:1 #
1.5337660519477949 1:0.80790001 2:0.84399998 3:0.7313 4:0.91930002 #
0.2191094359925421 1:0.85909998 2:0.78359997 3:0.63309997 4:0.97899997 #
-0.65732830797762631 1:0.84210002 2:0.80879998 3:0.95429999 4:0.98699999 #
1.0955471799627106 1:0.78560001 2:0.73680001 3:0.50370002 4:0.9382 #
0.65732830797762631 1:0.8495 2:0.79519999 3:0.8581 4:0.97219998 #
-0.65732830797762631 1:0.85750002 2:0.78799999 3:0.73439997 4:0.96960002 #
-0.65732830797762631 1:0.87300003 2:0.77640003 3:0.5851 4:0.97960001 #
-1.5337660519477949 1:0.88480002 2:0.89929998 3:0.99790001 4:0.99620003 #
-1.0955471799627106 1:0.80790001 2:0.84399998 3:0.7313 4:0.91930002 #
0.65732830797762631 1:0.85909998 2:0.78359997 3:0.63309997 4:0.97899997 #
1.0955471799627106 1:0.84210002 2:0.80879998 3:0.95429999 4:0.98699999 #
-1.5337660519477949 1:0.78560001 2:0.73680001 3:0.50370002 4:0.9382 #
1.5337660519477949 1:0.8495 2:0.79519999 3:0.8581 4:0.97219998 #
-0.65732830797762631 1:0.85750002 2:0.78799999 3:0.73439997 4:0.96960002 #
0.2191094359925421 1:0.87300003 2:0.77640003 3:0.5851 4:0.97960001 #
-0.2191094359925421 1:0.88480002 2:0.89929998 3:0.99790001 4:0.99620003 #
-1.0955471799627106 1:0.95289999 2:0.81590003 3:0.9066 4:0.99400002 #
0.65732830797762631 1:0.95060003 2:0.81730002 3:0.83740002 4:0.98689997 #
-0.2191094359925421 1:0.88630003 2:0.77829999 3:1 4:1 #
0.65732830797762631 1:0.9526 2:0.82059997 3:0.75050002 4:0.95469999 #
0.65732830797762631 1:0.91460001 2:0.80949998 3:1 4:1 #
0.65732830797762631 1:0.95539999 2:0.84350002 3:0.91759998 4:0.9928 #
-0.2191094359925421 1:0.96539998 2:0.81980002 3:0.8398 4:0.98409998 #
-1.0955471799627106 1:0.96700001 2:0.93690002 3:1 4:1 #
-0.65732830797762631 1:0.95289999 2:0.81590003 3:0.9066 4:0.99400002 #
0.2191094359925421 1:0.95060003 2:0.81730002 3:0.83740002 4:0.98689997 #
-1.0955471799627106 1:0.88630003 2:0.77829999 3:1 4:1 #
-1.5337660519477949 1:0.9526 2:0.82059997 3:0.75050002 4:0.95469999 #
1.0955471799627106 1:0.91460001 2:0.80949998 3:1 4:1 #
1.5337660519477949 1:0.95539999 2:0.84350002 3:0.91759998 4:0.9928 #
-0.2191094359925421 1:0.96539998 2:0.81980002 3:0.8398 4:0.98409998 #
0.65732830797762631 1:0.96700001 2:0.93690002 3:1 4:1 #
-0.65732830797762631 1:0.801 2:0.74800003 3:0.6221 4:0.80379999 #
-0.65732830797762631 1:0.82029998 2:0.73689997 3:0.41949999 4:0.91159999 #
0.2191094359925421 1:0.57620001 2:0.67510003 3:0.4501 4:0.68470001 #
0.65732830797762631 1:0.76520002 2:0.71450001 3:0.50340003 4:0.70230001 #
0.65732830797762631 1:0.81419998 2:0.7511 3:0.64819998 4:0.7816 #
1.5337660519477949 1:0.82730001 2:0.7597 3:0.5776 4:0.78030002 #
-0.2191094359925421 1:0.82160002 2:0.71850002 3:0.3721 4:0.85839999 #
-1.5337660519477949 1:0.85930002 2:0.90329999 3:0.54149997 4:0.83149999 #
-1.5337660519477949 1:0.801 2:0.74800003 3:0.6221 4:0.80379999 #
0.65732830797762631 1:0.82029998 2:0.73689997 3:0.41949999 4:0.91159999 #
-1.0955471799627106 1:0.57620001 2:0.67510003 3:0.4501 4:0.68470001 #
-0.65732830797762631 1:0.76520002 2:0.71450001 3:0.50340003 4:0.70230001 #
-0.2191094359925421 1:0.81419998 2:0.7511 3:0.64819998 4:0.7816 #
1.0955471799627106 1:0.82730001 2:0.7597 3:0.5776 4:0.78030002 #
0.2191094359925421 1:0.82160002 2:0.71850002 3:0.3721 4:0.85839999 #
1.5337660519477949 1:0.85930002 2:0.90329999 3:0.54149997 4:0.83149999 #
-1.0955471799627106 1:0.82770002 2:0.84960002 3:0.86390001 4:0.97839999 #
0.2191094359925421 1:0.79729998 2:0.77609998 3:0.73540002 4:0.94270003 #
-1.0955471799627106 1:0.83829999 2:0.884 3:0.9691 4:0.97140002 #
1.5337660519477949 1:0.78250003 2:0.7482 3:0.50230002 4:0.79769999 #
0.2191094359925421 1:0.77749997 2:0.81489998 3:0.92860001 4:0.9752 #
0.2191094359925421 1:0.83590001 2:0.79290003 3:0.69580001 4:0.93089998 #
1.0955471799627106 1:0.81950003 2:0.77179998 3:0.68300003 4:0.94590002 #
-1.0955471799627106 1:0.84450001 2:0.93000001 3:1 4:1 #
-0.65732830797762631 1:0.82770002 2:0.84960002 3:0.86390001 4:0.97839999 #
-1.0955471799627106 1:0.79729998 2:0.77609998 3:0.73540002 4:0.94270003 #
1.0955471799627106 1:0.83829999 2:0.884 3:0.9691 4:0.97140002 #
-1.5337660519477949 1:0.78250003 2:0.7482 3:0.50230002 4:0.79769999 #
0.65732830797762631 1:0.77749997 2:0.81489998 3:0.92860001 4:0.9752 #
-0.2191094359925421 1:0.83590001 2:0.79290003 3:0.69580001 4:0.93089998 #
0.2191094359925421 1:0.81950003 2:0.77179998 3:0.68300003 4:0.94590002 #
1.5337660519477949 1:0.84450001 2:0.93000001 3:1 4:1 #
-0.65732830797762631 1:0.78469998 2:0.7748 3:0.61390001 4:0.8876 #
0.2191094359925421 1:0.78490001 2:0.74580002 3:0.35429999 4:0.89109999 #
-1.0955471799627106 1:0.85430002 2:0.84069997 3:0.68629998 4:0.9073 #
0.65732830797762631 1:0.77819997 2:0.76270002 3:0.50099999 4:0.77270001 #
1.5337660519477949 1:0.77850002 2:0.78729999 3:0.5589 4:0.82080001 #
0.2191094359925421 1:0.83420002 2:0.80989999 3:0.60820001 4:0.87190002 #
0.65732830797762631 1:0.8283 2:0.76569998 3:0.48550001 4:0.87220001 #
-1.5337660519477949 1:0.85149997 2:0.89520001 3:1 4:1 #
-1.5337660519477949 1:0.78469998 2:0.7748 3:0.61390001 4:0.8876 #
-0.65732830797762631 1:0.78490001 2:0.74580002 3:0.35429999 4:0.89109999 #
0.2191094359925421 1:0.85430002 2:0.84069997 3:0.68629998 4:0.9073 #
-1.0955471799627106 1:0.77819997 2:0.76270002 3:0.50099999 4:0.77270001 #
-0.2191094359925421 1:0.77850002 2:0.78729999 3:0.5589 4:0.82080001 #
1.0955471799627106 1:0.83420002 2:0.80989999 3:0.60820001 4:0.87190002 #
1.5337660519477949 1:0.8283 2:0.76569998 3:0.48550001 4:0.87220001 #
0.65732830797762631 1:0.85149997 2:0.89520001 3:1 4:1 #
0.10155735119226272 1:0.95359999 2:0.85280001 3:0.82770002 4:0.98140001 #
-0 1:0.95279998 2:0.84130001 3:0.7597 4:0.9806 #
0.30467205357678812 1:0.95840001 2:0.86330003 3:0.87330002 4:0.99040002 #
-0.10155735119226272 1:0.94800001 2:0.8301 3:0.75190002 4:0.97439998 #
-0.50778675596131362 1:0.93040001 2:0.86769998 3:0.8635 4:0.96969998 #
-0 1:0.95069999 2:0.85509998 3:0.82160002 4:0.9813 #
0.50778675596131362 1:0.96100003 2:0.84310001 3:0.7852 4:0.98409998 #
-0.30467205357678812 1:0.94630003 2:0.89389998 3:1 4:1 #
0.10155735119226272 1:0.95359999 2:0.85280001 3:0.82770002 4:0.98140001 #
-0.20311470238452545 1:0.95279998 2:0.84130001 3:0.7597 4:0.9806 #
0.50778675596131362 1:0.95840001 2:0.86330003 3:0.87330002 4:0.99040002 #
-0.50778675596131362 1:0.94800001 2:0.8301 3:0.75190002 4:0.97439998 #
-0.71090145834583907 1:0.93040001 2:0.86769998 3:0.8635 4:0.96969998 #
-0.20311470238452545 1:0.95069999 2:0.85509998 3:0.82160002 4:0.9813 #
0.30467205357678812 1:0.96100003 2:0.84310001 3:0.7852 4:0.98409998 #
0.71090145834583907 1:0.94630003 2:0.89389998 3:1 4:1 #
-0.30467205357678812 1:0.84909999 2:0.85259998 3:0.84469998 4:0.90880001 #
-0.10155735119226272 1:0.80580002 2:0.76859999 3:0.44060001 4:0.9314 #
-0.50778675596131362 1:0.81080002 2:0.87059999 3:0.99910003 4:0.97320002 #
0.30467205357678812 1:0.77829999 2:0.79280001 3:0.4973 4:0.85720003 #
0.30467205357678812 1:0.82440001 2:0.85720003 3:0.86879998 4:0.9012 #
0.30467205357678812 1:0.82279998 2:0.81819999 3:0.59799999 4:0.88779998 #
0.50778675596131362 1:0.833 2:0.79790002 3:0.4815 4:0.91479999 #
-0.50778675596131362 1:0.84509999 2:0.89569998 3:0.99790001 4:0.921 #
-0.30467205357678812 1:0.84909999 2:0.85259998 3:0.84469998 4:0.90880001 #
-0.50778675596131362 1:0.80580002 2:0.76859999 3:0.44060001 4:0.9314 #
0.10155735119226272 1:0.81080002 2:0.87059999 3:0.99910003 4:0.97320002 #
-0.71090145834583907 1:0.77829999 2:0.79280001 3:0.4973 4:0.85720003 #
0.30467205357678812 1:0.82440001 2:0.85720003 3:0.86879998 4:0.9012 #
-0.10155735119226272 1:0.82279998 2:0.81819999 3:0.59799999 4:0.88779998 #
0.50778675596131362 1:0.833 2:0.79790002 3:0.4815 4:0.91479999 #
0.71090145834583907 1:0.84509999 2:0.89569998 3:0.99790001 4:0.921 #
0.10155735119226272 1:0.9357 2:0.85460001 3:0.89480001 4:0.96880001 #
-0.30467205357678812 1:0.94160002 2:0.84200001 3:0.73680001 4:0.96799999 #
0.71090145834583907 1:0.8563 2:0.86470002 3:0.99379998 4:0.94700003 #
0.30467205357678812 1:0.9339 2:0.83630002 3:0.7572 4:0.92500001 #
-0.10155735119226272 1:0.93049997 2:0.87019998 3:0.97409999 4:0.98140001 #
-0.10155735119226272 1:0.94450003 2:0.85769999 3:0.87400001 4:0.96390003 #
0.10155735119226272 1:0.94150001 2:0.8459 3:0.76679999 4:0.96689999 #
-0.71090145834583907 1:0.91970003 2:0.91850001 3:0.90979999 4:0.93769997 #
0.50778675596131362 1:0.9357 2:0.85460001 3:0.89480001 4:0.96880001 #
-0.50778675596131362 1:0.94160002 2:0.84200001 3:0.73680001 4:0.96799999 #
0.10155735119226272 1:0.8563 2:0.86470002 3:0.99379998 4:0.94700003 #
-0.30467205357678812 1:0.9339 2:0.83630002 3:0.7572 4:0.92500001 #
0.71090145834583907 1:0.93049997 2:0.87019998 3:0.97409999 4:0.98140001 #
0.30467205357678812 1:0.94450003 2:0.85769999 3:0.87400001 4:0.96390003 #
-0.10155735119226272 1:0.94150001 2:0.8459 3:0.76679999 4:0.96689999 #
-0.71090145834583907 1:0.91970003 2:0.91850001 3:0.90979999 4:0.93769997 #
-0.20311470238452545 1:0.94770002 2:0.87480003 3:0.4903 4:0.83679998 #
0.10155735119226272 1:0.95749998 2:0.84390002 3:0.6322 4:0.96170002 #
0.30467205357678812 1:0.91670001 2:0.85839999 3:0.45519999 4:0.82929999 #
-0.10155735119226272 1:0.95090002 2:0.8423 3:0.75150001 4:0.96499997 #
-0.60934410715357623 1:0.92640001 2:0.83130002 3:0.9497 4:0.9813 #
-0.10155735119226272 1:0.95480001 2:0.84600002 3:0.7902 4:0.96859998 #
0.30467205357678812 1:0.95730001 2:0.84509999 3:0.73379999 4:0.97299999 #
0.30467205357678812 1:0.9131 2:0.90539998 3:0.56739998 4:0.86360002 #
-0.20311470238452545 1:0.94770002 2:0.87480003 3:0.4903 4:0.83679998 #
0.50778675596131362 1:0.95749998 2:0.84390002 3:0.6322 4:0.96170002 #
-0.71090145834583907 1:0.91670001 2:0.85839999 3:0.45519999 4:0.82929999 #
0.10155735119226272 1:0.95090002 2:0.8423 3:0.75150001 4:0.96499997 #
-0.20311470238452545 1:0.92640001 2:0.83130002 3:0.9497 4:0.9813 #
0.30467205357678812 1:0.95480001 2:0.84600002 3:0.7902 4:0.96859998 #
0.71090145834583907 1:0.95730001 2:0.84509999 3:0.73379999 4:0.97299999 #
-0.50778675596131362 1:0.9131 2:0.90539998 3:0.56739998 4:0.86360002 #
0.10155735119226272 1:0.93690002 2:0.8441 3:0.71569997 4:0.89209998 #
0.20311470238452545 1:0.94160002 2:0.83560002 3:0.73089999 4:0.91229999 #
0.20311470238452545 1:0.92930001 2:0.88800001 3:0.74339998 4:0.92540002 #
0.50778675596131362 1:0.95069999 2:0.83939999 3:0.7482 4:0.90820003 #
-0.10155735119226272 1:0.92119998 2:0.85909998 3:0.7076 4:0.88859999 #
-0.50778675596131362 1:0.94700003 2:0.85979998 3:0.8739 4:0.96509999 #
0.10155735119226272 1:0.95819998 2:0.8409 3:0.78189999 4:0.94880003 #
-0.50778675596131362 1:0.92869997 2:0.90060002 3:0.99980003 4:0.99790001 #
-0.50778675596131362 1:0.93690002 2:0.8441 3:0.71569997 4:0.89209998 #
-0.20311470238452545 1:0.94160002 2:0.83560002 3:0.73089999 4:0.91229999 #
-0.20311470238452545 1:0.92930001 2:0.88800001 3:0.74339998 4:0.92540002 #
0.10155735119226272 1:0.95069999 2:0.83939999 3:0.7482 4:0.90820003 #
-0.71090145834583907 1:0.92119998 2:0.85909998 3:0.7076 4:0.88859999 #
0.50778675596131362 1:0.94700003 2:0.85979998 3:0.8739 4:0.96509999 #
0.30467205357678812 1:0.95819998 2:0.8409 3:0.78189999 4:0.94880003 #
0.71090145834583907 1:0.92869997 2:0.90060002 3:0.99980003 4:0.99790001 #
0.50778675596131362 1:0.9569 2:0.85100001 3:0.78719997 4:0.91479999 #
-0.71090145834583907 1:0.95539999 2:0.8373 3:0.68809998 4:0.93300003 #
0.71090145834583907 1:0.95899999 2:0.86799997 3:0.7985 4:0.91460001 #
0.10155735119226272 1:0.94940001 2:0.83700001 3:0.75040001 4:0.91869998 #
-0.50778675596131362 1:0.95740002 2:0.85110003 3:0.8021 4:0.91780001 #
-0.10155735119226272 1:0.95840001 2:0.84539998 3:0.78390002 4:0.91750002 #
-0.30467205357678812 1:0.96329999 2:0.83920002 3:0.72680002 4:0.93120003 #
0.30467205357678812 1:0.935 2:0.898 3:0.83829999 4:0.90319997 #
0.50778675596131362 1:0.9569 2:0.85100001 3:0.78719997 4:0.91479999 #
-0.71090145834583907 1:0.95539999 2:0.8373 3:0.68809998 4:0.93300003 #
0.71090145834583907 1:0.95899999 2:0.86799997 3:0.7985 4:0.91460001 #
0.10155735119226272 1:0.94940001 2:0.83700001 3:0.75040001 4:0.91869998 #
-0.50778675596131362 1:0.95740002 2:0.85110003 3:0.8021 4:0.91780001 #
-0.10155735119226272 1:0.95840001 2:0.84539998 3:0.78390002 4:0.91750002 #
-0.30467205357678812 1:0.96329999 2:0.83920002 3:0.72680002 4:0.93120003 #
0.30467205357678812 1:0.935 2:0.898 3:0.83829999 4:0.90319997 #
-0.30467205357678812 1:0.80199999 2:0.8075 3:0.58579999 4:0.78979999 #
0.30467205357678812 1:0.7899 2:0.80339998 3:0.72839999 4:0.82520002 #
-0.20311470238452545 1:0.80440003 2:0.88940001 3:0.79720002 4:0.7543 #
0.10155735119226272 1:0.77340001 2:0.75690001 3:0.4989 4:0.67619997 #
-0.10155735119226272 1:0.7834 2:0.81349999 3:0.68699998 4:0.82389998 #
0.30467205357678812 1:0.84869999 2:0.83990002 3:0.74860001 4:0.86140001 #
0.40622940476905089 1:0.82099998 2:0.79170001 3:0.59619999 4:0.80629998 #
-0.50778675596131362 1:0.82499999 2:0.91219997 3:0.77920002 4:0.88679999 #
-0.50778675596131362 1:0.80199999 2:0.8075 3:0.58579999 4:0.78979999 #
-0.30467205357678812 1:0.7899 2:0.80339998 3:0.72839999 4:0.82520002 #
0.20311470238452545 1:0.80440003 2:0.88940001 3:0.79720002 4:0.7543 #
-0.10155735119226272 1:0.77340001 2:0.75690001 3:0.4989 4:0.67619997 #
-0.71090145834583907 1:0.7834 2:0.81349999 3:0.68699998 4:0.82389998 #
0.71090145834583907 1:0.84869999 2:0.83990002 3:0.74860001 4:0.86140001 #
0.20311470238452545 1:0.82099998 2:0.79170001 3:0.59619999 4:0.80629998 #
0.50778675596131362 1:0.82499999 2:0.91219997 3:0.77920002 4:0.88679999 #
0.30467205357678812 1:0.73269999 2:0.77670002 3:0.53060001 4:0.82590002 #
-0.30467205357678812 1:0.77770001 2:0.76069999 3:0.4508 4:0.81660002 #
-0.10155735119226272 1:0.77590001 2:0.84579998 3:0.4763 4:0.7744 #
0.50778675596131362 1:0.76920003 2:0.7586 3:0.5007 4:0.84670001 #
-0.10155735119226272 1:0.73989999 2:0.76660001 3:0.5424 4:0.77759999 #
0.30467205357678812 1:0.8233 2:0.78509998 3:0.56770003 4:0.8556 #
-0.30467205357678812 1:0.80669999 2:0.77359998 3:0.51190001 4:0.8495 #
-0.30467205357678812 1:0.83639997 2:0.8908 3:0.61129999 4:0.7974 #
-0.30467205357678812 1:0.73269999 2:0.77670002 3:0.53060001 4:0.82590002 #
-0.50778675596131362 1:0.77770001 2:0.76069999 3:0.4508 4:0.81660002 #
-0.10155735119226272 1:0.77590001 2:0.84579998 3:0.4763 4:0.7744 #
0.30467205357678812 1:0.76920003 2:0.7586 3:0.5007 4:0.84670001 #
-0.71090145834583907 1:0.73989999 2:0.76660001 3:0.5424 4:0.77759999 #
0.71090145834583907 1:0.8233 2:0.78509998 3:0.56770003 4:0.8556 #
0.10155735119226272 1:0.80669999 2:0.77359998 3:0.51190001 4:0.8495 #
0.50778675596131362 1:0.83639997 2:0.8908 3:0.61129999 4:0.7974 #
-0.30467205357678812 1:0.94050002 2:0.84490001 3:0.7475 4:0.90259999 #
-0.30467205357678812 1:0.93919998 2:0.83859998 3:0.72799999 4:0.8926 #
-0.10155735119226272 1:0.92049998 2:0.88569999 3:0.75980002 4:0.8854 #
0.10155735119226272 1:0.94730002 2:0.83840001 3:0.75019997 4:0.90499997 #
-0.50778675596131362 1:0.91640002 2:0.85039997 3:0.75169998 4:0.91509998 #
0.40622940476905089 1:0.95200002 2:0.8549 3:0.77399999 4:0.926 #
0.71090145834583907 1:0.95109999 2:0.84170002 3:0.72479999 4:0.903 #
-0 1:0.95039999 2:0.89289999 3:0.81419998 4:0.88770002 #
-0.30467205357678812 1:0.94050002 2:0.84490001 3:0.7475 4:0.90259999 #
-0.50778675596131362 1:0.93919998 2:0.83859998 3:0.72799999 4:0.8926 #
-0.10155735119226272 1:0.92049998 2:0.88569999 3:0.75980002 4:0.8854 #
0.10155735119226272 1:0.94730002 2:0.83840001 3:0.75019997 4:0.90499997 #
-0.71090145834583907 1:0.91640002 2:0.85039997 3:0.75169998 4:0.91509998 #
0.40622940476905089 1:0.95200002 2:0.8549 3:0.77399999 4:0.926 #
0.71090145834583907 1:0.95109999 2:0.84170002 3:0.72479999 4:0.903 #
0.40622940476905089 1:0.95039999 2:0.89289999 3:0.81419998 4:0.88770002 #
-0.10155735119226272 1:0.82309997 2:0.80690002 3:0.68169999 4:0.91409999 #
-0.10155735119226272 1:0.8362 2:0.79049999 3:0.50880003 4:0.93480003 #
-0.50778675596131362 1:0.78390002 2:0.88770002 3:1 4:0.99739999 #
0.50778675596131362 1:0.76630002 2:0.78280002 3:0.5165 4:0.81770003 #
0.71090145834583907 1:0.78399998 2:0.78380001 3:0.76300001 4:0.94630003 #
0.10155735119226272 1:0.83270001 2:0.82700002 3:0.85000002 4:0.96390003 #
-0 1:0.83929998 2:0.7967 3:0.57889998 4:0.94749999 #
-0.60934410715357623 1:0.86589998 2:0.8969 3:1 4:1 #
-0.30467205357678812 1:0.82309997 2:0.80690002 3:0.68169999 4:0.91409999 #
-0.10155735119226272 1:0.8362 2:0.79049999 3:0.50880003 4:0.93480003 #
-0.50778675596131362 1:0.78390002 2:0.88770002 3:1 4:0.99739999 #
-0.71090145834583907 1:0.76630002 2:0.78280002 3:0.5165 4:0.81770003 #
0.10155735119226272 1:0.78399998 2:0.78380001 3:0.76300001 4:0.94630003 #
0.71090145834583907 1:0.83270001 2:0.82700002 3:0.85000002 4:0.96390003 #
0.40622940476905089 1:0.83929998 2:0.7967 3:0.57889998 4:0.94749999 #
0.40622940476905089 1:0.86589998 2:0.8969 3:1 4:1 #
0.10155735119226272 1:0.9242 2:0.86849999 3:0.84170002 4:0.81730002 #
-0.10155735119226272 1:0.91500002 2:0.84509999 3:0.7798 4:0.84219998 #
0.71090145834583907 1:0.84100002 2:0.90560001 3:0.68720001 4:0.82520002 #
0.10155735119226272 1:0.9285 2:0.82779998 3:0.75089997 4:0.84280002 #
-0.30467205357678812 1:0.91119999 2:0.87129998 3:0.78380001 4:0.83279997 #
-0.50778675596131362 1:0.94569999 2:0.86229998 3:0.83469999 4:0.85170001 #
0.30467205357678812 1:0.93849999 2:0.85000002 3:0.82690001 4:0.84759998 #
-0.30467205357678812 1:0.93129998 2:0.90009999 3:0.90460002 4:0.83819997 #
0.10155735119226272 1:0.9242 2:0.86849999 3:0.84170002 4:0.81730002 #
-0.50778675596131362 1:0.91500002 2:0.84509999 3:0.7798 4:0.84219998 #
-0.30467205357678812 1:0.84100002 2:0.90560001 3:0.68720001 4:0.82520002 #
-0.10155735119226272 1:0.9285 2:0.82779998 3:0.75089997 4:0.84280002 #
-0.71090145834583907 1:0.91119999 2:0.87129998 3:0.78380001 4:0.83279997 #
0.30467205357678812 1:0.94569999 2:0.86229998 3:0.83469999 4:0.85170001 #
0.50778675596131362 1:0.93849999 2:0.85000002 3:0.82690001 4:0.84759998 #
0.71090145834583907 1:0.93129998 2:0.90009999 3:0.90460002 4:0.83819997 #
-0.71090145834583907 1:0.9368 2:0.85219997 3:0.91289997 4:0.96749997 #
-0.10155735119226272 1:0.94630003 2:0.84619999 3:0.85729998 4:0.96560001 #
0.30467205357678812 1:0.94989997 2:0.88620001 3:0.95599997 4:0.95560002 #
0.30467205357678812 1:0.9501 2:0.82450002 3:0.75129998 4:0.96390003 #
-0.30467205357678812 1:0.93159997 2:0.8567 3:0.9418 4:0.95349997 #
-0.10155735119226272 1:0.95829999 2:0.85619998 3:0.88239998 4:0.96079999 #
0.30467205357678812 1:0.96179998 2:0.84609997 3:0.83590001 4:0.97240001 #
0.30467205357678812 1:0.95349997 2:0.89020002 3:0.958 4:0.95770001 #
-0.71090145834583907 1:0.9368 2:0.85219997 3:0.91289997 4:0.96749997 #
-0.30467205357678812 1:0.94630003 2:0.84619999 3:0.85729998 4:0.96560001 #
0.50778675596131362 1:0.94989997 2:0.88620001 3:0.95599997 4:0.95560002 #
-0.50778675596131362 1:0.9501 2:0.82450002 3:0.75129998 4:0.96390003 #
-0.10155735119226272 1:0.93159997 2:0.8567 3:0.9418 4:0.95349997 #
0.10155735119226272 1:0.95829999 2:0.85619998 3:0.88239998 4:0.96079999 #
0.30467205357678812 1:0.96179998 2:0.84609997 3:0.83590001 4:0.97240001 #
0.71090145834583907 1:0.95349997 2:0.89020002 3:0.958 4:0.95770001 #
0.10155735119226272 1:0.94529998 2:0.8193 3:0.77569997 4:0.9612 #
0.10155735119226272 1:0.95179999 2:0.80849999 3:0.59420002 4:0.99730003 #
-0.50778675596131362 1:0.91570002 2:0.88080001 3:0.88690001 4:0.9752 #
-0.10155735119226272 1:0.9522 2:0.80980003 3:0.7507 4:0.95969999 #
0.30467205357678812 1:0.93000001 2:0.82749999 3:0.74529999 4:0.94620001 #
0.30467205357678812 1:0.96340001 2:0.84920001 3:0.82370001 4:0.97119999 #
0.50778675596131362 1:0.9605 2:0.81760001 3:0.65259999 4:0.99379998 #
-0.71090145834583907 1:0.93400002 2:0.90350002 3:0.99970001 4:0.99949998 #
-0.10155735119226272 1:0.94529998 2:0.8193 3:0.77569997 4:0.9612 #
0.10155735119226272 1:0.95179999 2:0.80849999 3:0.59420002 4:0.99730003 #
-0.71090145834583907 1:0.91570002 2:0.88080001 3:0.88690001 4:0.9752 #
-0.30467205357678812 1:0.9522 2:0.80980003 3:0.7507 4:0.95969999 #
-0.50778675596131362 1:0.93000001 2:0.82749999 3:0.74529999 4:0.94620001 #
0.50778675596131362 1:0.96340001 2:0.84920001 3:0.82370001 4:0.97119999 #
0.71090145834583907 1:0.9605 2:0.81760001 3:0.65259999 4:0.99379998 #
0.30467205357678812 1:0.93400002 2:0.90350002 3:0.99970001 4:0.99949998 #
0.10155735119226272 1:0.94309998 2:0.82770002 3:0.77689999 4:0.92479998 #
-0.10155735119226272 1:0.92909998 2:0.81849998 3:0.69080001 4:0.97009999 #
-0.30467205357678812 1:0.91960001 2:0.88249999 3:0.95279998 4:0.99479997 #
0.50778675596131362 1:0.95349997 2:0.82560003 3:0.7507 4:0.94999999 #
-0.30467205357678812 1:0.91970003 2:0.82870001 3:0.77899998 4:0.9461 #
0.30467205357678812 1:0.9483 2:0.83499998 3:0.75700003 4:0.95209998 #
0.40622940476905089 1:0.95499998 2:0.82789999 3:0.75209999 4:0.95929998 #
-0.60934410715357623 1:0.93419999 2:0.90369999 3:0.9364 4:0.98089999 #
-0.30467205357678812 1:0.94309998 2:0.82770002 3:0.77689999 4:0.92479998 #
-0.50778675596131362 1:0.92909998 2:0.81849998 3:0.69080001 4:0.97009999 #
0.71090145834583907 1:0.91960001 2:0.88249999 3:0.95279998 4:0.99479997 #
0.10155735119226272 1:0.95349997 2:0.82560003 3:0.7507 4:0.94999999 #
-0.71090145834583907 1:0.91970003 2:0.82870001 3:0.77899998 4:0.9461 #
-0.10155735119226272 1:0.9483 2:0.83499998 3:0.75700003 4:0.95209998 #
0.40622940476905089 1:0.95499998 2:0.82789999 3:0.75209999 4:0.95929998 #
0.40622940476905089 1:0.93419999 2:0.90369999 3:0.9364 4:0.98089999 #
0.30467205357678812 1:0.82209998 2:0.84750003 3:0.40130001 4:0.83939999 #
0.20311470238452545 1:0.83850002 2:0.7507 3:0.42919999 4:0.9964 #
-0.60934410715357623 1:0.88410002 2:0.87910002 3:0.94749999 4:0.99049997 #
0.50778675596131362 1:0.78170002 2:0.74760002 3:0.5029 4:0.96020001 #
0.10155735119226272 1:0.86430001 2:0.81199998 3:0.86839998 4:0.99089998 #
-0.30467205357678812 1:0.88249999 2:0.81400001 3:0.71929997 4:0.98970002 #
0.30467205357678812 1:0.83530003 2:0.7489 3:0.36610001 4:0.9946 #
-0.50778675596131362 1:0.89819998 2:0.89109999 3:0.995 4:1 #
-0.50778675596131362 1:0.82209998 2:0.84750003 3:0.40130001 4:0.83939999 #
0.20311470238452545 1:0.83850002 2:0.7507 3:0.42919999 4:0.9964 #
0.20311470238452545 1:0.88410002 2:0.87910002 3:0.94749999 4:0.99049997 #
-0.71090145834583907 1:0.78170002 2:0.74760002 3:0.5029 4:0.96020001 #
0.50778675596131362 1:0.86430001 2:0.81199998 3:0.86839998 4:0.99089998 #
-0.30467205357678812 1:0.88249999 2:0.81400001 3:0.71929997 4:0.98970002 #
-0.10155735119226272 1:0.83530003 2:0.7489 3:0.36610001 4:0.9946 #
0.71090145834583907 1:0.89819998 2:0.89109999 3:0.995 4:1 #
-0.10155735119226272 1:0.92339998 2:0.82709998 3:0.66900003 4:0.94440001 #
-0.10155735119226272 1:0.93849999 2:0.8251 3:0.62819999 4:0.96259999 #
-0.10155735119226272 1:0.87309998 2:0.8732 3:0.99879998 4:0.99879998 #
-0.30467205357678812 1:0.94440001 2:0.83630002 3:0.75019997 4:0.96899998 #
0.50778675596131362 1:0.89410001 2:0.82239997 3:0.56519997 4:0.91750002 #
-0 1:0.94910002 2:0.85699999 3:0.80040002 4:0.95899999 #
0.50778675596131362 1:0.94190001 2:0.83789998 3:0.70749998 4:0.98540002 #
-0.40622940476905089 1:0.93519998 2:0.89420003 3:0.9249 4:0.95590001 #
-0.50778675596131362 1:0.92339998 2:0.82709998 3:0.66900003 4:0.94440001 #
-0.10155735119226272 1:0.93849999 2:0.8251 3:0.62819999 4:0.96259999 #
0.10155735119226272 1:0.87309998 2:0.8732 3:0.99879998 4:0.99879998 #
-0.30467205357678812 1:0.94440001 2:0.83630002 3:0.75019997 4:0.96899998 #
-0.71090145834583907 1:0.89410001 2:0.82239997 3:0.56519997 4:0.91750002 #
0.40622940476905089 1:0.94910002 2:0.85699999 3:0.80040002 4:0.95899999 #
0.71090145834583907 1:0.94190001 2:0.83789998 3:0.70749998 4:0.98540002 #
0.40622940476905089 1:0.93519998 2:0.89420003 3:0.9249 4:0.95590001 #
0.10155735119226272 1:0.94529998 2:0.87779999 3:0.8161 4:0.97439998 #
-0.10155735119226272 1:0.95639998 2:0.85799998 3:0.55599999 4:0.92570001 #
0.50778675596131362 1:0.87290001 2:0.85900003 3:0.78420001 4:0.96280003 #
-0.71090145834583907 1:0.94090003 2:0.83560002 3:0.75050002 4:0.94980001 #
0.71090145834583907 1:0.88099998 2:0.89139998 3:0.77990001 4:0.97439998 #
-0.50778675596131362 1:0.92919999 2:0.86299998 3:0.85180002 4:0.98049998 #
-0.30467205357678812 1:0.95020002 2:0.85219997 3:0.7173 4:0.95590001 #
0.30467205357678812 1:0.93940002 2:0.90469998 3:0.67089999 4:0.95529997 #
0.50778675596131362 1:0.94529998 2:0.87779999 3:0.8161 4:0.97439998 #
0.30467205357678812 1:0.95639998 2:0.85799998 3:0.55599999 4:0.92570001 #
-0.30467205357678812 1:0.87290001 2:0.85900003 3:0.78420001 4:0.96280003 #
-0.71090145834583907 1:0.94090003 2:0.83560002 3:0.75050002 4:0.94980001 #
0.10155735119226272 1:0.88099998 2:0.89139998 3:0.77990001 4:0.97439998 #
-0.50778675596131362 1:0.92919999 2:0.86299998 3:0.85180002 4:0.98049998 #
-0.10155735119226272 1:0.95020002 2:0.85219997 3:0.7173 4:0.95590001 #
0.71090145834583907 1:0.93940002 2:0.90469998 3:0.67089999 4:0.95529997 #
-0.20311470238452545 1:0.96499997 2:0.85399997 3:0.86769998 4:0.98280001 #
-0 1:0.95959997 2:0.84420002 3:0.86070001 4:0.98100001 #
0.30467205357678812 1:0.94480002 2:0.88440001 3:0.949 4:0.99110001 #
0.10155735119226272 1:0.9497 2:0.82800001 3:0.74839997 4:0.95660001 #
0.10155735119226272 1:0.94230002 2:0.85430002 3:0.80409998 4:0.95969999 #
-0.30467205357678812 1:0.96249998 2:0.84789997 3:0.81720001 4:0.97369999 #
-0.10155735119226272 1:0.9594 2:0.83850002 3:0.83829999 4:0.97970003 #
0.10155735119226272 1:0.93800002 2:0.92439997 3:1 4:1 #
0.20311470238452545 1:0.96499997 2:0.85399997 3:0.86769998 4:0.98280001 #
0.20311470238452545 1:0.95959997 2:0.84420002 3:0.86070001 4:0.98100001 #
0.71090145834583907 1:0.94480002 2:0.88440001 3:0.949 4:0.99110001 #
-0.71090145834583907 1:0.9497 2:0.82800001 3:0.74839997 4:0.95660001 #
-0.50778675596131362 1:0.94230002 2:0.85430002 3:0.80409998 4:0.95969999 #
-0.30467205357678812 1:0.96249998 2:0.84789997 3:0.81720001 4:0.97369999 #
-0.10155735119226272 1:0.9594 2:0.83850002 3:0.83829999 4:0.97970003 #
0.50778675596131362 1:0.93800002 2:0.92439997 3:1 4:1 #
0.10155735119226272 1:0.78289998 2:0.78829998 3:0.5183 4:0.83639997 #
-0.50778675596131362 1:0.80430001 2:0.75220001 3:0.45289999 4:0.92519999 #
0.50778675596131362 1:0.60799998 2:0.76599997 3:0.60339999 4:0.89219999 #
0.50778675596131362 1:0.78259999 2:0.77020001 3:0.50770003 4:0.79930001 #
-0.50778675596131362 1:0.77429998 2:0.79939997 3:0.5686 4:0.87879997 #
0.30467205357678812 1:0.81440002 2:0.79339999 3:0.55419999 4:0.85610002 #
-0.10155735119226272 1:0.84170002 2:0.78350002 3:0.49290001 4:0.85729998 #
-0.30467205357678812 1:0.83429998 2:0.8973 3:0.64609998 4:0.9005 #
-0.30467205357678812 1:0.78289998 2:0.78829998 3:0.5183 4:0.83639997 #
-0.50778675596131362 1:0.80430001 2:0.75220001 3:0.45289999 4:0.92519999 #
-0.10155735119226272 1:0.60799998 2:0.76599997 3:0.60339999 4:0.89219999 #
0.10155735119226272 1:0.78259999 2:0.77020001 3:0.50770003 4:0.79930001 #
-0.71090145834583907 1:0.77429998 2:0.79939997 3:0.5686 4:0.87879997 #
0.30467205357678812 1:0.81440002 2:0.79339999 3:0.55419999 4:0.85610002 #
0.50778675596131362 1:0.84170002 2:0.78350002 3:0.49290001 4:0.85729998 #
0.71090145834583907 1:0.83429998 2:0.8973 3:0.64609998 4:0.9005 #
-0.30467205357678812 1:0.9289 2:0.8308 3:0.65890002 4:0.95649999 #
0.71090145834583907 1:0.93970001 2:0.82200003 3:0.64219999 4:0.95910001 #
0.30467205357678812 1:0.90319997 2:0.88499999 3:0.9235 4:0.98989999 #
0.30467205357678812 1:0.9465 2:0.83209997 3:0.74860001 4:0.97149998 #
-0.30467205357678812 1:0.90509999 2:0.82630002 3:0.52859998 4:0.93330002 #
-0.10155735119226272 1:0.94459999 2:0.84490001 3:0.72549999 4:0.96929997 #
0.10155735119226272 1:0.95200002 2:0.82709998 3:0.6785 4:0.97759998 #
-0.71090145834583907 1:0.9321 2:0.92629999 3:1 4:1 #
-0.50778675596131362 1:0.9289 2:0.8308 3:0.65890002 4:0.95649999 #
0.71090145834583907 1:0.93970001 2:0.82200003 3:0.64219999 4:0.95910001 #
0.50778675596131362 1:0.90319997 2:0.88499999 3:0.9235 4:0.98989999 #
0.10155735119226272 1:0.9465 2:0.83209997 3:0.74860001 4:0.97149998 #
-0.71090145834583907 1:0.90509999 2:0.82630002 3:0.52859998 4:0.93330002 #
-0.30467205357678812 1:0.94459999 2:0.84490001 3:0.72549999 4:0.96929997 #
-0.10155735119226272 1:0.95200002 2:0.82709998 3:0.6785 4:0.97759998 #
0.30467205357678812 1:0.9321 2:0.92629999 3:1 4:1 #
0.50778675596131362 1:0.80790001 2:0.84399998 3:0.7313 4:0.91930002 #
-0.10155735119226272 1:0.85909998 2:0.78359997 3:0.63309997 4:0.97899997 #
-0.10155735119226272 1:0.84210002 2:0.80879998 3:0.95429999 4:0.98699999 #
0.50778675596131362 1:0.78560001 2:0.73680001 3:0.50370002 4:0.9382 #
0.30467205357678812 1:0.8495 2:0.79519999 3:0.8581 4:0.97219998 #
-0.10155735119226272 1:0.85750002 2:0.78799999 3:0.73439997 4:0.96960002 #
-0.30467205357678812 1:0.87300003 2:0.77640003 3:0.5851 4:0.97960001 #
-0.71090145834583907 1:0.88480002 2:0.89929998 3:0.99790001 4:0.99620003 #
-0.50778675596131362 1:0.80790001 2:0.84399998 3:0.7313 4:0.91930002 #
0.30467205357678812 1:0.85909998 2:0.78359997 3:0.63309997 4:0.97899997 #
0.50778675596131362 1:0.84210002 2:0.80879998 3:0.95429999 4:0.98699999 #
-0.71090145834583907 1:0.78560001 2:0.73680001 3:0.50370002 4:0.9382 #
0.71090145834583907 1:0.8495 2:0.79519999 3:0.8581 4:0.97219998 #
-0.30467205357678812 1:0.85750002 2:0.78799999 3:0.73439997 4:0.96960002 #
0.10155735119226272 1:0.87300003 2:0.77640003 3:0.5851 4:0.97960001 #
-0.10155735119226272 1:0.88480002 2:0.89929998 3:0.99790001 4:0.99620003 #
-0.50778675596131362 1:0.95289999 2:0.81590003 3:0.9066 4:0.99400002 #
0.30467205357678812 1:0.95060003 2:0.81730002 3:0.83740002 4:0.98689997 #
-0.10155735119226272 1:0.88630003 2:0.77829999 3:1 4:1 #
0.10155735119226272 1:0.9526 2:0.82059997 3:0.75050002 4:0.95469999 #
0.30467205357678812 1:0.91460001 2:0.80949998 3:1 4:1 #
0.30467205357678812 1:0.95539999 2:0.84350002 3:0.91759998 4:0.9928 #
0.10155735119226272 1:0.96539998 2:0.81980002 3:0.8398 4:0.98409998 #
-0.50778675596131362 1:0.96700001 2:0.93690002 3:1 4:1 #
-0.30467205357678812 1:0.95289999 2:0.81590003 3:0.9066 4:0.99400002 #
0.10155735119226272 1:0.95060003 2:0.81730002 3:0.83740002 4:0.98689997 #
-0.50778675596131362 1:0.88630003 2:0.77829999 3:1 4:1 #
-0.71090145834583907 1:0.9526 2:0.82059997 3:0.75050002 4:0.95469999 #
0.50778675596131362 1:0.91460001 2:0.80949998 3:1 4:1 #
0.71090145834583907 1:0.95539999 2:0.84350002 3:0.91759998 4:0.9928 #
-0.10155735119226272 1:0.96539998 2:0.81980002 3:0.8398 4:0.98409998 #
0.30467205357678812 1:0.96700001 2:0.93690002 3:1 4:1 #
-0.30467205357678812 1:0.801 2:0.74800003 3:0.6221 4:0.80379999 #
-0.10155735119226272 1:0.82029998 2:0.73689997 3:0.41949999 4:0.91159999 #
0.10155735119226272 1:0.57620001 2:0.67510003 3:0.4501 4:0.68470001 #
0.10155735119226272 1:0.76520002 2:0.71450001 3:0.50340003 4:0.70230001 #
0.10155735119226272 1:0.81419998 2:0.7511 3:0.64819998 4:0.7816 #
0.71090145834583907 1:0.82730001 2:0.7597 3:0.5776 4:0.78030002 #
0.10155735119226272 1:0.82160002 2:0.71850002 3:0.3721 4:0.85839999 #
-0.71090145834583907 1:0.85930002 2:0.90329999 3:0.54149997 4:0.83149999 #
-0.71090145834583907 1:0.801 2:0.74800003 3:0.6221 4:0.80379999 #
0.30467205357678812 1:0.82029998 2:0.73689997 3:0.41949999 4:0.91159999 #
-0.50778675596131362 1:0.57620001 2:0.67510003 3:0.4501 4:0.68470001 #
-0.30467205357678812 1:0.76520002 2:0.71450001 3:0.50340003 4:0.70230001 #
-0.10155735119226272 1:0.81419998 2:0.7511 3:0.64819998 4:0.7816 #
0.50778675596131362 1:0.82730001 2:0.7597 3:0.5776 4:0.78030002 #
0.10155735119226272 1:0.82160002 2:0.71850002 3:0.3721 4:0.85839999 #
0.71090145834583907 1:0.85930002 2:0.90329999 3:0.54149997 4:0.83149999 #
-0.50778675596131362 1:0.82770002 2:0.84960002 3:0.86390001 4:0.97839999 #
0.30467205357678812 1:0.79729998 2:0.77609998 3:0.73540002 4:0.94270003 #
-0.50778675596131362 1:0.83829999 2:0.884 3:0.9691 4:0.97140002 #
0.50778675596131362 1:0.78250003 2:0.7482 3:0.50230002 4:0.79769999 #
0.30467205357678812 1:0.77749997 2:0.81489998 3:0.92860001 4:0.9752 #
0.10155735119226272 1:0.83590001 2:0.79290003 3:0.69580001 4:0.93089998 #
0.30467205357678812 1:0.81950003 2:0.77179998 3:0.68300003 4:0.94590002 #
-0.50778675596131362 1:0.84450001 2:0.93000001 3:1 4:1 #
-0.30467205357678812 1:0.82770002 2:0.84960002 3:0.86390001 4:0.97839999 #
-0.50778675596131362 1:0.79729998 2:0.77609998 3:0.73540002 4:0.94270003 #
0.50778675596131362 1:0.83829999 2:0.884 3:0.9691 4:0.97140002 #
-0.71090145834583907 1:0.78250003 2:0.7482 3:0.50230002 4:0.79769999 #
0.30467205357678812 1:0.77749997 2:0.81489998 3:0.92860001 4:0.9752 #
-0.10155735119226272 1:0.83590001 2:0.79290003 3:0.69580001 4:0.93089998 #
0.10155735119226272 1:0.81950003 2:0.77179998 3:0.68300003 4:0.94590002 #
0.71090145834583907 1:0.84450001 2:0.93000001 3:1 4:1 #
-0.30467205357678812 1:0.78469998 2:0.7748 3:0.61390001 4:0.8876 #
0.10155735119226272 1:0.78490001 2:0.74580002 3:0.35429999 4:0.89109999 #
-0.50778675596131362 1:0.85430002 2:0.84069997 3:0.68629998 4:0.9073 #
0.30467205357678812 1:0.77819997 2:0.76270002 3:0.50099999 4:0.77270001 #
0.71090145834583907 1:0.77850002 2:0.78729999 3:0.5589 4:0.82080001 #
0.10155735119226272 1:0.83420002 2:0.80989999 3:0.60820001 4:0.87190002 #
0.30467205357678812 1:0.8283 2:0.76569998 3:0.48550001 4:0.87220001 #
-0.71090145834583907 1:0.85149997 2:0.89520001 3:1 4:1 #
-0.71090145834583907 1:0.78469998 2:0.7748 3:0.61390001 4:0.8876 #
-0.30467205357678812 1:0.78490001 2:0.74580002 3:0.35429999 4:0.89109999 #
0.10155735119226272 1:0.85430002 2:0.84069997 3:0.68629998 4:0.9073 #
-0.50778675596131362 1:0.77819997 2:0.76270002 3:0.50099999 4:0.77270001 #
-0.10155735119226272 1:0.77850002 2:0.78729999 3:0.5589 4:0.82080001 #
0.50778675596131362 1:0.83420002 2:0.80989999 3:0.60820001 4:0.87190002 #
0.71090145834583907 1:0.8283 2:0.76569998 3:0.48550001 4:0.87220001 #
0.30467205357678812 1:0.85149997 2:0.89520001 3:1 4:1 #
0.15112070571059469 1:0.95359999 2:0.85280001 3:0.82770002 4:0.98140001 #
-0 1:0.95279998 2:0.84130001 3:0.7597 4:0.9806 #
0.45336211713178404 1:0.95840001 2:0.86330003 3:0.87330002 4:0.99040002 #
-0.15112070571059469 1:0.94800001 2:0.8301 3:0.75190002 4:0.97439998 #
-0.75560352855297352 1:0.93040001 2:0.86769998 3:0.8635 4:0.96969998 #
-0 1:0.95069999 2:0.85509998 3:0.82160002 4:0.9813 #
0.75560352855297352 1:0.96100003 2:0.84310001 3:0.7852 4:0.98409998 #
-0.45336211713178404 1:0.94630003 2:0.89389998 3:1 4:1 #
0.15112070571059469 1:0.95359999 2:0.85280001 3:0.82770002 4:0.98140001 #
-0.30224141142118938 1:0.95279998 2:0.84130001 3:0.7597 4:0.9806 #
0.75560352855297352 1:0.95840001 2:0.86330003 3:0.87330002 4:0.99040002 #
-0.75560352855297352 1:0.94800001 2:0.8301 3:0.75190002 4:0.97439998 #
-1.057844939974163 1:0.93040001 2:0.86769998 3:0.8635 4:0.96969998 #
-0.30224141142118938 1:0.95069999 2:0.85509998 3:0.82160002 4:0.9813 #
0.45336211713178404 1:0.96100003 2:0.84310001 3:0.7852 4:0.98409998 #
1.057844939974163 1:0.94630003 2:0.89389998 3:1 4:1 #
-0.75560352855297352 1:0.84909999 2:0.85259998 3:0.84469998 4:0.90880001 #
0.15112070571059469 1:0.80580002 2:0.76859999 3:0.44060001 4:0.9314 #
-0.75560352855297352 1:0.81080002 2:0.87059999 3:0.99910003 4:0.97320002 #
0.45336211713178404 1:0.77829999 2:0.79280001 3:0.4973 4:0.85720003 #
0.15112070571059469 1:0.82440001 2:0.85720003 3:0.86879998 4:0.9012 #
0.75560352855297352 1:0.82279998 2:0.81819999 3:0.59799999 4:0.88779998 #
0.75560352855297352 1:0.833 2:0.79790002 3:0.4815 4:0.91479999 #
-0.75560352855297352 1:0.84509999 2:0.89569998 3:0.99790001 4:0.921 #
-0.45336211713178404 1:0.84909999 2:0.85259998 3:0.84469998 4:0.90880001 #
-0.75560352855297352 1:0.80580002 2:0.76859999 3:0.44060001 4:0.9314 #
0.15112070571059469 1:0.81080002 2:0.87059999 3:0.99910003 4:0.97320002 #
-1.057844939974163 1:0.77829999 2:0.79280001 3:0.4973 4:0.85720003 #
0.45336211713178404 1:0.82440001 2:0.85720003 3:0.86879998 4:0.9012 #
-0.15112070571059469 1:0.82279998 2:0.81819999 3:0.59799999 4:0.88779998 #
0.75560352855297352 1:0.833 2:0.79790002 3:0.4815 4:0.91479999 #
1.057844939974163 1:0.84509999 2:0.89569998 3:0.99790001 4:0.921 #
0.15112070571059469 1:0.9357 2:0.85460001 3:0.89480001 4:0.96880001 #
-0.45336211713178404 1:0.94160002 2:0.84200001 3:0.73680001 4:0.96799999 #
1.057844939974163 1:0.8563 2:0.86470002 3:0.99379998 4:0.94700003 #
0.45336211713178404 1:0.9339 2:0.83630002 3:0.7572 4:0.92500001 #
-0.15112070571059469 1:0.93049997 2:0.87019998 3:0.97409999 4:0.98140001 #
-0.15112070571059469 1:0.94450003 2:0.85769999 3:0.87400001 4:0.96390003 #
0.15112070571059469 1:0.94150001 2:0.8459 3:0.76679999 4:0.96689999 #
-1.057844939974163 1:0.91970003 2:0.91850001 3:0.90979999 4:0.93769997 #
0.75560352855297352 1:0.9357 2:0.85460001 3:0.89480001 4:0.96880001 #
-0.75560352855297352 1:0.94160002 2:0.84200001 3:0.73680001 4:0.96799999 #
0.15112070571059469 1:0.8563 2:0.86470002 3:0.99379998 4:0.94700003 #
-0.45336211713178404 1:0.9339 2:0.83630002 3:0.7572 4:0.92500001 #
1.057844939974163 1:0.93049997 2:0.87019998 3:0.97409999 4:0.98140001 #
0.45336211713178404 1:0.94450003 2:0.85769999 3:0.87400001 4:0.96390003 #
-0.15112070571059469 1:0.94150001 2:0.8459 3:0.76679999 4:0.96689999 #
-1.057844939974163 1:0.91970003 2:0.91850001 3:0.90979999 4:0.93769997 #
0.30224141142118938 1:0.94770002 2:0.87480003 3:0.4903 4:0.83679998 #
0.15112070571059469 1:0.95749998 2:0.84390002 3:0.6322 4:0.96170002 #
0.45336211713178404 1:0.91670001 2:0.85839999 3:0.45519999 4:0.82929999 #
-0.45336211713178404 1:0.95090002 2:0.8423 3:0.75150001 4:0.96499997 #
-0.90672423426356807 1:0.92640001 2:0.83130002 3:0.9497 4:0.9813 #
-0.45336211713178404 1:0.95480001 2:0.84600002 3:0.7902 4:0.96859998 #
0.15112070571059469 1:0.95730001 2:0.84509999 3:0.73379999 4:0.97299999 #
0.75560352855297352 1:0.9131 2:0.90539998 3:0.56739998 4:0.86360002 #
-0.30224141142118938 1:0.94770002 2:0.87480003 3:0.4903 4:0.83679998 #
0.75560352855297352 1:0.95749998 2:0.84390002 3:0.6322 4:0.96170002 #
-1.057844939974163 1:0.91670001 2:0.85839999 3:0.45519999 4:0.82929999 #
0.15112070571059469 1:0.95090002 2:0.8423 3:0.75150001 4:0.96499997 #
-0.30224141142118938 1:0.92640001 2:0.83130002 3:0.9497 4:0.9813 #
0.45336211713178404 1:0.95480001 2:0.84600002 3:0.7902 4:0.96859998 #
1.057844939974163 1:0.95730001 2:0.84509999 3:0.73379999 4:0.97299999 #
-0.75560352855297352 1:0.9131 2:0.90539998 3:0.56739998 4:0.86360002 #
0.15112070571059469 1:0.93690002 2:0.8441 3:0.71569997 4:0.89209998 #
0.30224141142118938 1:0.94160002 2:0.83560002 3:0.73089999 4:0.91229999 #
0.30224141142118938 1:0.92930001 2:0.88800001 3:0.74339998 4:0.92540002 #
0.75560352855297352 1:0.95069999 2:0.83939999 3:0.7482 4:0.90820003 #
-0.15112070571059469 1:0.92119998 2:0.85909998 3:0.7076 4:0.88859999 #
-0.75560352855297352 1:0.94700003 2:0.85979998 3:0.8739 4:0.96509999 #
0.15112070571059469 1:0.95819998 2:0.8409 3:0.78189999 4:0.94880003 #
-0.75560352855297352 1:0.92869997 2:0.90060002 3:0.99980003 4:0.99790001 #
-0.75560352855297352 1:0.93690002 2:0.8441 3:0.71569997 4:0.89209998 #
-0.30224141142118938 1:0.94160002 2:0.83560002 3:0.73089999 4:0.91229999 #
-0.30224141142118938 1:0.92930001 2:0.88800001 3:0.74339998 4:0.92540002 #
0.15112070571059469 1:0.95069999 2:0.83939999 3:0.7482 4:0.90820003 #
-1.057844939974163 1:0.92119998 2:0.85909998 3:0.7076 4:0.88859999 #
0.75560352855297352 1:0.94700003 2:0.85979998 3:0.8739 4:0.96509999 #
0.45336211713178404 1:0.95819998 2:0.8409 3:0.78189999 4:0.94880003 #
1.057844939974163 1:0.92869997 2:0.90060002 3:0.99980003 4:0.99790001 #
0.75560352855297352 1:0.9569 2:0.85100001 3:0.78719997 4:0.91479999 #
-1.057844939974163 1:0.95539999 2:0.8373 3:0.68809998 4:0.93300003 #
1.057844939974163 1:0.95899999 2:0.86799997 3:0.7985 4:0.91460001 #
0.15112070571059469 1:0.94940001 2:0.83700001 3:0.75040001 4:0.91869998 #
-0.75560352855297352 1:0.95740002 2:0.85110003 3:0.8021 4:0.91780001 #
-0.15112070571059469 1:0.95840001 2:0.84539998 3:0.78390002 4:0.91750002 #
-0.45336211713178404 1:0.96329999 2:0.83920002 3:0.72680002 4:0.93120003 #
0.45336211713178404 1:0.935 2:0.898 3:0.83829999 4:0.90319997 #
0.75560352855297352 1:0.9569 2:0.85100001 3:0.78719997 4:0.91479999 #
-1.057844939974163 1:0.95539999 2:0.8373 3:0.68809998 4:0.93300003 #
1.057844939974163 1:0.95899999 2:0.86799997 3:0.7985 4:0.91460001 #
0.15112070571059469 1:0.94940001 2:0.83700001 3:0.75040001 4:0.91869998 #
-0.75560352855297352 1:0.95740002 2:0.85110003 3:0.8021 4:0.91780001 #
-0.15112070571059469 1:0.95840001 2:0.84539998 3:0.78390002 4:0.91750002 #
-0.45336211713178404 1:0.96329999 2:0.83920002 3:0.72680002 4:0.93120003 #
0.45336211713178404 1:0.935 2:0.898 3:0.83829999 4:0.90319997 #
-0.15112070571059469 1:0.80199999 2:0.8075 3:0.58579999 4:0.78979999 #
0.15112070571059469 1:0.7899 2:0.80339998 3:0.72839999 4:0.82520002 #
-0 1:0.80440003 2:0.88940001 3:0.79720002 4:0.7543 #
0.45336211713178404 1:0.77340001 2:0.75690001 3:0.4989 4:0.67619997 #
-0.15112070571059469 1:0.7834 2:0.81349999 3:0.68699998 4:0.82389998 #
-0.15112070571059469 1:0.84869999 2:0.83990002 3:0.74860001 4:0.86140001 #
0.60448282284237875 1:0.82099998 2:0.79170001 3:0.59619999 4:0.80629998 #
-0.75560352855297352 1:0.82499999 2:0.91219997 3:0.77920002 4:0.88679999 #
-0.75560352855297352 1:0.80199999 2:0.8075 3:0.58579999 4:0.78979999 #
-0.45336211713178404 1:0.7899 2:0.80339998 3:0.72839999 4:0.82520002 #
0.30224141142118938 1:0.80440003 2:0.88940001 3:0.79720002 4:0.7543 #
-0.15112070571059469 1:0.77340001 2:0.75690001 3:0.4989 4:0.67619997 #
-1.057844939974163 1:0.7834 2:0.81349999 3:0.68699998 4:0.82389998 #
1.057844939974163 1:0.84869999 2:0.83990002 3:0.74860001 4:0.86140001 #
0.30224141142118938 1:0.82099998 2:0.79170001 3:0.59619999 4:0.80629998 #
0.75560352855297352 1:0.82499999 2:0.91219997 3:0.77920002 4:0.88679999 #
0.45336211713178404 1:0.73269999 2:0.77670002 3:0.53060001 4:0.82590002 #
-0.45336211713178404 1:0.77770001 2:0.76069999 3:0.4508 4:0.81660002 #
-0.15112070571059469 1:0.77590001 2:0.84579998 3:0.4763 4:0.7744 #
0.75560352855297352 1:0.76920003 2:0.7586 3:0.5007 4:0.84670001 #
-0.15112070571059469 1:0.73989999 2:0.76660001 3:0.5424 4:0.77759999 #
0.45336211713178404 1:0.8233 2:0.78509998 3:0.56770003 4:0.8556 #
-0.45336211713178404 1:0.80669999 2:0.77359998 3:0.51190001 4:0.8495 #
-0.45336211713178404 1:0.83639997 2:0.8908 3:0.61129999 4:0.7974 #
-0.45336211713178404 1:0.73269999 2:0.77670002 3:0.53060001 4:0.82590002 #
-0.75560352855297352 1:0.77770001 2:0.76069999 3:0.4508 4:0.81660002 #
-0.15112070571059469 1:0.77590001 2:0.84579998 3:0.4763 4:0.7744 #
0.45336211713178404 1:0.76920003 2:0.7586 3:0.5007 4:0.84670001 #
-1.057844939974163 1:0.73989999 2:0.76660001 3:0.5424 4:0.77759999 #
1.057844939974163 1:0.8233 2:0.78509998 3:0.56770003 4:0.8556 #
0.15112070571059469 1:0.80669999 2:0.77359998 3:0.51190001 4:0.8495 #
0.75560352855297352 1:0.83639997 2:0.8908 3:0.61129999 4:0.7974 #
-0.45336211713178404 1:0.94050002 2:0.84490001 3:0.7475 4:0.90259999 #
-0.45336211713178404 1:0.93919998 2:0.83859998 3:0.72799999 4:0.8926 #
0.15112070571059469 1:0.92049998 2:0.88569999 3:0.75980002 4:0.8854 #
0.15112070571059469 1:0.94730002 2:0.83840001 3:0.75019997 4:0.90499997 #
-0.75560352855297352 1:0.91640002 2:0.85039997 3:0.75169998 4:0.91509998 #
0.60448282284237875 1:0.95200002 2:0.8549 3:0.77399999 4:0.926 #
1.057844939974163 1:0.95109999 2:0.84170002 3:0.72479999 4:0.903 #
-0.30224141142118938 1:0.95039999 2:0.89289999 3:0.81419998 4:0.88770002 #
-0.45336211713178404 1:0.94050002 2:0.84490001 3:0.7475 4:0.90259999 #
-0.75560352855297352 1:0.93919998 2:0.83859998 3:0.72799999 4:0.8926 #
-0.15112070571059469 1:0.92049998 2:0.88569999 3:0.75980002 4:0.8854 #
0.15112070571059469 1:0.94730002 2:0.83840001 3:0.75019997 4:0.90499997 #
-1.057844939974163 1:0.91640002 2:0.85039997 3:0.75169998 4:0.91509998 #
0.60448282284237875 1:0.95200002 2:0.8549 3:0.77399999 4:0.926 #
1.057844939974163 1:0.95109999 2:0.84170002 3:0.72479999 4:0.903 #
0.60448282284237875 1:0.95039999 2:0.89289999 3:0.81419998 4:0.88770002 #
-0.15112070571059469 1:0.82309997 2:0.80690002 3:0.68169999 4:0.91409999 #
-0.15112070571059469 1:0.8362 2:0.79049999 3:0.50880003 4:0.93480003 #
-0.75560352855297352 1:0.78390002 2:0.88770002 3:1 4:0.99739999 #
1.057844939974163 1:0.76630002 2:0.78280002 3:0.5165 4:0.81770003 #
0.45336211713178404 1:0.78399998 2:0.78380001 3:0.76300001 4:0.94630003 #
0.15112070571059469 1:0.83270001 2:0.82700002 3:0.85000002 4:0.96390003 #
0.30224141142118938 1:0.83929998 2:0.7967 3:0.57889998 4:0.94749999 #
-0.90672423426356807 1:0.86589998 2:0.8969 3:1 4:1 #
-0.45336211713178404 1:0.82309997 2:0.80690002 3:0.68169999 4:0.91409999 #
-0.15112070571059469 1:0.8362 2:0.79049999 3:0.50880003 4:0.93480003 #
-0.75560352855297352 1:0.78390002 2:0.88770002 3:1 4:0.99739999 #
-1.057844939974163 1:0.76630002 2:0.78280002 3:0.5165 4:0.81770003 #
0.15112070571059469 1:0.78399998 2:0.78380001 3:0.76300001 4:0.94630003 #
1.057844939974163 1:0.83270001 2:0.82700002 3:0.85000002 4:0.96390003 #
0.60448282284237875 1:0.83929998 2:0.7967 3:0.57889998 4:0.94749999 #
0.60448282284237875 1:0.86589998 2:0.8969 3:1 4:1 #
0.15112070571059469 1:0.9242 2:0.86849999 3:0.84170002 4:0.81730002 #
-0.15112070571059469 1:0.91500002 2:0.84509999 3:0.7798 4:0.84219998 #
1.057844939974163 1:0.84100002 2:0.90560001 3:0.68720001 4:0.82520002 #
0.15112070571059469 1:0.9285 2:0.82779998 3:0.75089997 4:0.84280002 #
-0.45336211713178404 1:0.91119999 2:0.87129998 3:0.78380001 4:0.83279997 #
-0.75560352855297352 1:0.94569999 2:0.86229998 3:0.83469999 4:0.85170001 #
0.45336211713178404 1:0.93849999 2:0.85000002 3:0.82690001 4:0.84759998 #
-0.45336211713178404 1:0.93129998 2:0.90009999 3:0.90460002 4:0.83819997 #
0.15112070571059469 1:0.9242 2:0.86849999 3:0.84170002 4:0.81730002 #
-0.75560352855297352 1:0.91500002 2:0.84509999 3:0.7798 4:0.84219998 #
-0.45336211713178404 1:0.84100002 2:0.90560001 3:0.68720001 4:0.82520002 #
-0.15112070571059469 1:0.9285 2:0.82779998 3:0.75089997 4:0.84280002 #
-1.057844939974163 1:0.91119999 2:0.87129998 3:0.78380001 4:0.83279997 #
0.45336211713178404 1:0.94569999 2:0.86229998 3:0.83469999 4:0.85170001 #
0.75560352855297352 1:0.93849999 2:0.85000002 3:0.82690001 4:0.84759998 #
1.057844939974163 1:0.93129998 2:0.90009999 3:0.90460002 4:0.83819997 #
-1.057844939974163 1:0.9368 2:0.85219997 3:0.91289997 4:0.96749997 #
-0.15112070571059469 1:0.94630003 2:0.84619999 3:0.85729998 4:0.96560001 #
0.45336211713178404 1:0.94989997 2:0.88620001 3:0.95599997 4:0.95560002 #
0.45336211713178404 1:0.9501 2:0.82450002 3:0.75129998 4:0.96390003 #
-0.45336211713178404 1:0.93159997 2:0.8567 3:0.9418 4:0.95349997 #
-0.15112070571059469 1:0.95829999 2:0.85619998 3:0.88239998 4:0.96079999 #
0.45336211713178404 1:0.96179998 2:0.84609997 3:0.83590001 4:0.97240001 #
0.45336211713178404 1:0.95349997 2:0.89020002 3:0.958 4:0.95770001 #
-1.057844939974163 1:0.9368 2:0.85219997 3:0.91289997 4:0.96749997 #
-0.45336211713178404 1:0.94630003 2:0.84619999 3:0.85729998 4:0.96560001 #
0.75560352855297352 1:0.94989997 2:0.88620001 3:0.95599997 4:0.95560002 #
-0.75560352855297352 1:0.9501 2:0.82450002 3:0.75129998 4:0.96390003 #
-0.15112070571059469 1:0.93159997 2:0.8567 3:0.9418 4:0.95349997 #
0.15112070571059469 1:0.95829999 2:0.85619998 3:0.88239998 4:0.96079999 #
0.45336211713178404 1:0.96179998 2:0.84609997 3:0.83590001 4:0.97240001 #
1.057844939974163 1:0.95349997 2:0.89020002 3:0.958 4:0.95770001 #
0.15112070571059469 1:0.94529998 2:0.8193 3:0.77569997 4:0.9612 #
0.45336211713178404 1:0.95179999 2:0.80849999 3:0.59420002 4:0.99730003 #
-0.75560352855297352 1:0.91570002 2:0.88080001 3:0.88690001 4:0.9752 #
0.15112070571059469 1:0.9522 2:0.80980003 3:0.7507 4:0.95969999 #
0.15112070571059469 1:0.93000001 2:0.82749999 3:0.74529999 4:0.94620001 #
0.15112070571059469 1:0.96340001 2:0.84920001 3:0.82370001 4:0.97119999 #
0.75560352855297352 1:0.9605 2:0.81760001 3:0.65259999 4:0.99379998 #
-1.057844939974163 1:0.93400002 2:0.90350002 3:0.99970001 4:0.99949998 #
-0.15112070571059469 1:0.94529998 2:0.8193 3:0.77569997 4:0.9612 #
0.15112070571059469 1:0.95179999 2:0.80849999 3:0.59420002 4:0.99730003 #
-1.057844939974163 1:0.91570002 2:0.88080001 3:0.88690001 4:0.9752 #
-0.45336211713178404 1:0.9522 2:0.80980003 3:0.7507 4:0.95969999 #
-0.75560352855297352 1:0.93000001 2:0.82749999 3:0.74529999 4:0.94620001 #
0.75560352855297352 1:0.96340001 2:0.84920001 3:0.82370001 4:0.97119999 #
1.057844939974163 1:0.9605 2:0.81760001 3:0.65259999 4:0.99379998 #
0.45336211713178404 1:0.93400002 2:0.90350002 3:0.99970001 4:0.99949998 #
0.15112070571059469 1:0.94309998 2:0.82770002 3:0.77689999 4:0.92479998 #
-0.15112070571059469 1:0.92909998 2:0.81849998 3:0.69080001 4:0.97009999 #
-0.45336211713178404 1:0.91960001 2:0.88249999 3:0.95279998 4:0.99479997 #
0.75560352855297352 1:0.95349997 2:0.82560003 3:0.7507 4:0.94999999 #
-0.45336211713178404 1:0.91970003 2:0.82870001 3:0.77899998 4:0.9461 #
0.45336211713178404 1:0.9483 2:0.83499998 3:0.75700003 4:0.95209998 #
0.60448282284237875 1:0.95499998 2:0.82789999 3:0.75209999 4:0.95929998 #
-0.90672423426356807 1:0.93419999 2:0.90369999 3:0.9364 4:0.98089999 #
-0.45336211713178404 1:0.94309998 2:0.82770002 3:0.77689999 4:0.92479998 #
-0.75560352855297352 1:0.92909998 2:0.81849998 3:0.69080001 4:0.97009999 #
1.057844939974163 1:0.91960001 2:0.88249999 3:0.95279998 4:0.99479997 #
0.15112070571059469 1:0.95349997 2:0.82560003 3:0.7507 4:0.94999999 #
-1.057844939974163 1:0.91970003 2:0.82870001 3:0.77899998 4:0.9461 #
-0.15112070571059469 1:0.9483 2:0.83499998 3:0.75700003 4:0.95209998 #
0.60448282284237875 1:0.95499998 2:0.82789999 3:0.75209999 4:0.95929998 #
0.60448282284237875 1:0.93419999 2:0.90369999 3:0.9364 4:0.98089999 #
0.45336211713178404 1:0.82209998 2:0.84750003 3:0.40130001 4:0.83939999 #
0.30224141142118938 1:0.83850002 2:0.7507 3:0.42919999 4:0.9964 #
-0.90672423426356807 1:0.88410002 2:0.87910002 3:0.94749999 4:0.99049997 #
0.75560352855297352 1:0.78170002 2:0.74760002 3:0.5029 4:0.96020001 #
0.15112070571059469 1:0.86430001 2:0.81199998 3:0.86839998 4:0.99089998 #
-0.45336211713178404 1:0.88249999 2:0.81400001 3:0.71929997 4:0.98970002 #
0.45336211713178404 1:0.83530003 2:0.7489 3:0.36610001 4:0.9946 #
-0.75560352855297352 1:0.89819998 2:0.89109999 3:0.995 4:1 #
-0.75560352855297352 1:0.82209998 2:0.84750003 3:0.40130001 4:0.83939999 #
0.30224141142118938 1:0.83850002 2:0.7507 3:0.42919999 4:0.9964 #
0.30224141142118938 1:0.88410002 2:0.87910002 3:0.94749999 4:0.99049997 #
-1.057844939974163 1:0.78170002 2:0.74760002 3:0.5029 4:0.96020001 #
0.75560352855297352 1:0.86430001 2:0.81199998 3:0.86839998 4:0.99089998 #
-0.45336211713178404 1:0.88249999 2:0.81400001 3:0.71929997 4:0.98970002 #
-0.15112070571059469 1:0.83530003 2:0.7489 3:0.36610001 4:0.9946 #
1.057844939974163 1:0.89819998 2:0.89109999 3:0.995 4:1 #
-0.15112070571059469 1:0.92339998 2:0.82709998 3:0.66900003 4:0.94440001 #
-0.15112070571059469 1:0.93849999 2:0.8251 3:0.62819999 4:0.96259999 #
-0.15112070571059469 1:0.87309998 2:0.8732 3:0.99879998 4:0.99879998 #
-0.45336211713178404 1:0.94440001 2:0.83630002 3:0.75019997 4:0.96899998 #
0.75560352855297352 1:0.89410001 2:0.82239997 3:0.56519997 4:0.91750002 #
-0 1:0.94910002 2:0.85699999 3:0.80040002 4:0.95899999 #
0.75560352855297352 1:0.94190001 2:0.83789998 3:0.70749998 4:0.98540002 #
-0.60448282284237875 1:0.93519998 2:0.89420003 3:0.9249 4:0.95590001 #
-0.75560352855297352 1:0.92339998 2:0.82709998 3:0.66900003 4:0.94440001 #
-0.15112070571059469 1:0.93849999 2:0.8251 3:0.62819999 4:0.96259999 #
0.15112070571059469 1:0.87309998 2:0.8732 3:0.99879998 4:0.99879998 #
-0.45336211713178404 1:0.94440001 2:0.83630002 3:0.75019997 4:0.96899998 #
-1.057844939974163 1:0.89410001 2:0.82239997 3:0.56519997 4:0.91750002 #
0.60448282284237875 1:0.94910002 2:0.85699999 3:0.80040002 4:0.95899999 #
1.057844939974163 1:0.94190001 2:0.83789998 3:0.70749998 4:0.98540002 #
0.60448282284237875 1:0.93519998 2:0.89420003 3:0.9249 4:0.95590001 #
0.15112070571059469 1:0.94529998 2:0.87779999 3:0.8161 4:0.97439998 #
0.15112070571059469 1:0.95639998 2:0.85799998 3:0.55599999 4:0.92570001 #
0.75560352855297352 1:0.87290001 2:0.85900003 3:0.78420001 4:0.96280003 #
-1.057844939974163 1:0.94090003 2:0.83560002 3:0.75050002 4:0.94980001 #
0.75560352855297352 1:0.88099998 2:0.89139998 3:0.77990001 4:0.97439998 #
-0.75560352855297352 1:0.92919999 2:0.86299998 3:0.85180002 4:0.98049998 #
-0.45336211713178404 1:0.95020002 2:0.85219997 3:0.7173 4:0.95590001 #
0.45336211713178404 1:0.93940002 2:0.90469998 3:0.67089999 4:0.95529997 #
0.75560352855297352 1:0.94529998 2:0.87779999 3:0.8161 4:0.97439998 #
0.45336211713178404 1:0.95639998 2:0.85799998 3:0.55599999 4:0.92570001 #
-0.45336211713178404 1:0.87290001 2:0.85900003 3:0.78420001 4:0.96280003 #
-1.057844939974163 1:0.94090003 2:0.83560002 3:0.75050002 4:0.94980001 #
0.15112070571059469 1:0.88099998 2:0.89139998 3:0.77990001 4:0.97439998 #
-0.75560352855297352 1:0.92919999 2:0.86299998 3:0.85180002 4:0.98049998 #
-0.15112070571059469 1:0.95020002 2:0.85219997 3:0.7173 4:0.95590001 #
1.057844939974163 1:0.93940002 2:0.90469998 3:0.67089999 4:0.95529997 #
-0.30224141142118938 1:0.96499997 2:0.85399997 3:0.86769998 4:0.98280001 #
-0 1:0.95959997 2:0.84420002 3:0.86070001 4:0.98100001 #
0.45336211713178404 1:0.94480002 2:0.88440001 3:0.949 4:0.99110001 #
0.15112070571059469 1:0.9497 2:0.82800001 3:0.74839997 4:0.95660001 #
0.15112070571059469 1:0.94230002 2:0.85430002 3:0.80409998 4:0.95969999 #
-0.45336211713178404 1:0.96249998 2:0.84789997 3:0.81720001 4:0.97369999 #
-0.15112070571059469 1:0.9594 2:0.83850002 3:0.83829999 4:0.97970003 #
0.15112070571059469 1:0.93800002 2:0.92439997 3:1 4:1 #
0.30224141142118938 1:0.96499997 2:0.85399997 3:0.86769998 4:0.98280001 #
0.30224141142118938 1:0.95959997 2:0.84420002 3:0.86070001 4:0.98100001 #
1.057844939974163 1:0.94480002 2:0.88440001 3:0.949 4:0.99110001 #
-1.057844939974163 1:0.9497 2:0.82800001 3:0.74839997 4:0.95660001 #
-0.75560352855297352 1:0.94230002 2:0.85430002 3:0.80409998 4:0.95969999 #
-0.45336211713178404 1:0.96249998 2:0.84789997 3:0.81720001 4:0.97369999 #
-0.15112070571059469 1:0.9594 2:0.83850002 3:0.83829999 4:0.97970003 #
0.75560352855297352 1:0.93800002 2:0.92439997 3:1 4:1 #
0.15112070571059469 1:0.78289998 2:0.78829998 3:0.5183 4:0.83639997 #
-0.75560352855297352 1:0.80430001 2:0.75220001 3:0.45289999 4:0.92519999 #
0.45336211713178404 1:0.60799998 2:0.76599997 3:0.60339999 4:0.89219999 #
0.75560352855297352 1:0.78259999 2:0.77020001 3:0.50770003 4:0.79930001 #
-0.45336211713178404 1:0.77429998 2:0.79939997 3:0.5686 4:0.87879997 #
0.75560352855297352 1:0.81440002 2:0.79339999 3:0.55419999 4:0.85610002 #
-0.45336211713178404 1:0.84170002 2:0.78350002 3:0.49290001 4:0.85729998 #
-0.45336211713178404 1:0.83429998 2:0.8973 3:0.64609998 4:0.9005 #
-0.45336211713178404 1:0.78289998 2:0.78829998 3:0.5183 4:0.83639997 #
-0.75560352855297352 1:0.80430001 2:0.75220001 3:0.45289999 4:0.92519999 #
-0.15112070571059469 1:0.60799998 2:0.76599997 3:0.60339999 4:0.89219999 #
0.15112070571059469 1:0.78259999 2:0.77020001 3:0.50770003 4:0.79930001 #
-1.057844939974163 1:0.77429998 2:0.79939997 3:0.5686 4:0.87879997 #
0.45336211713178404 1:0.81440002 2:0.79339999 3:0.55419999 4:0.85610002 #
0.75560352855297352 1:0.84170002 2:0.78350002 3:0.49290001 4:0.85729998 #
1.057844939974163 1:0.83429998 2:0.8973 3:0.64609998 4:0.9005 #
-0.45336211713178404 1:0.9289 2:0.8308 3:0.65890002 4:0.95649999 #
1.057844939974163 1:0.93970001 2:0.82200003 3:0.64219999 4:0.95910001 #
0.45336211713178404 1:0.90319997 2:0.88499999 3:0.9235 4:0.98989999 #
0.45336211713178404 1:0.9465 2:0.83209997 3:0.74860001 4:0.97149998 #
-0.15112070571059469 1:0.90509999 2:0.82630002 3:0.52859998 4:0.93330002 #
-0.15112070571059469 1:0.94459999 2:0.84490001 3:0.72549999 4:0.96929997 #
-0.15112070571059469 1:0.95200002 2:0.82709998 3:0.6785 4:0.97759998 #
-1.057844939974163 1:0.9321 2:0.92629999 3:1 4:1 #
-0.75560352855297352 1:0.9289 2:0.8308 3:0.65890002 4:0.95649999 #
1.057844939974163 1:0.93970001 2:0.82200003 3:0.64219999 4:0.95910001 #
0.75560352855297352 1:0.90319997 2:0.88499999 3:0.9235 4:0.98989999 #
0.15112070571059469 1:0.9465 2:0.83209997 3:0.74860001 4:0.97149998 #
-1.057844939974163 1:0.90509999 2:0.82630002 3:0.52859998 4:0.93330002 #
-0.45336211713178404 1:0.94459999 2:0.84490001 3:0.72549999 4:0.96929997 #
-0.15112070571059469 1:0.95200002 2:0.82709998 3:0.6785 4:0.97759998 #
0.45336211713178404 1:0.9321 2:0.92629999 3:1 4:1 #
1.057844939974163 1:0.80790001 2:0.84399998 3:0.7313 4:0.91930002 #
0.15112070571059469 1:0.85909998 2:0.78359997 3:0.63309997 4:0.97899997 #
-0.45336211713178404 1:0.84210002 2:0.80879998 3:0.95429999 4:0.98699999 #
0.75560352855297352 1:0.78560001 2:0.73680001 3:0.50370002 4:0.9382 #
0.45336211713178404 1:0.8495 2:0.79519999 3:0.8581 4:0.97219998 #
-0.45336211713178404 1:0.85750002 2:0.78799999 3:0.73439997 4:0.96960002 #
-0.45336211713178404 1:0.87300003 2:0.77640003 3:0.5851 4:0.97960001 #
-1.057844939974163 1:0.88480002 2:0.89929998 3:0.99790001 4:0.99620003 #
-0.75560352855297352 1:0.80790001 2:0.84399998 3:0.7313 4:0.91930002 #
0.45336211713178404 1:0.85909998 2:0.78359997 3:0.63309997 4:0.97899997 #
0.75560352855297352 1:0.84210002 2:0.80879998 3:0.95429999 4:0.98699999 #
-1.057844939974163 1:0.78560001 2:0.73680001 3:0.50370002 4:0.9382 #
1.057844939974163 1:0.8495 2:0.79519999 3:0.8581 4:0.97219998 #
-0.45336211713178404 1:0.85750002 2:0.78799999 3:0.73439997 4:0.96960002 #
0.15112070571059469 1:0.87300003 2:0.77640003 3:0.5851 4:0.97960001 #
-0.15112070571059469 1:0.88480002 2:0.89929998 3:0.99790001 4:0.99620003 #
-0.75560352855297352 1:0.95289999 2:0.81590003 3:0.9066 4:0.99400002 #
0.45336211713178404 1:0.95060003 2:0.81730002 3:0.83740002 4:0.98689997 #
-0.15112070571059469 1:0.88630003 2:0.77829999 3:1 4:1 #
0.45336211713178404 1:0.9526 2:0.82059997 3:0.75050002 4:0.95469999 #
0.45336211713178404 1:0.91460001 2:0.80949998 3:1 4:1 #
0.45336211713178404 1:0.95539999 2:0.84350002 3:0.91759998 4:0.9928 #
-0.15112070571059469 1:0.96539998 2:0.81980002 3:0.8398 4:0.98409998 #
-0.75560352855297352 1:0.96700001 2:0.93690002 3:1 4:1 #
-0.45336211713178404 1:0.95289999 2:0.81590003 3:0.9066 4:0.99400002 #
0.15112070571059469 1:0.95060003 2:0.81730002 3:0.83740002 4:0.98689997 #
-0.75560352855297352 1:0.88630003 2:0.77829999 3:1 4:1 #
-1.057844939974163 1:0.9526 2:0.82059997 3:0.75050002 4:0.95469999 #
0.75560352855297352 1:0.91460001 2:0.80949998 3:1 4:1 #
1.057844939974163 1:0.95539999 2:0.84350002 3:0.91759998 4:0.9928 #
-0.15112070571059469 1:0.96539998 2:0.81980002 3:0.8398 4:0.98409998 #
0.45336211713178404 1:0.96700001 2:0.93690002 3:1 4:1 #
-0.45336211713178404 1:0.801 2:0.74800003 3:0.6221 4:0.80379999 #
-0.75560352855297352 1:0.82029998 2:0.73689997 3:0.41949999 4:0.91159999 #
0.45336211713178404 1:0.57620001 2:0.67510003 3:0.4501 4:0.68470001 #
0.15112070571059469 1:0.76520002 2:0.71450001 3:0.50340003 4:0.70230001 #
0.45336211713178404 1:0.81419998 2:0.7511 3:0.64819998 4:0.7816 #
0.75560352855297352 1:0.82730001 2:0.7597 3:0.5776 4:0.78030002 #
0.15112070571059469 1:0.82160002 2:0.71850002 3:0.3721 4:0.85839999 #
-0.75560352855297352 1:0.85930002 2:0.90329999 3:0.54149997 4:0.83149999 #
-1.057844939974163 1:0.801 2:0.74800003 3:0.6221 4:0.80379999 #
0.45336211713178404 1:0.82029998 2:0.73689997 3:0.41949999 4:0.91159999 #
-0.75560352855297352 1:0.57620001 2:0.67510003 3:0.4501 4:0.68470001 #
-0.45336211713178404 1:0.76520002 2:0.71450001 3:0.50340003 4:0.70230001 #
-0.15112070571059469 1:0.81419998 2:0.7511 3:0.64819998 4:0.7816 #
0.75560352855297352 1:0.82730001 2:0.7597 3:0.5776 4:0.78030002 #
0.15112070571059469 1:0.82160002 2:0.71850002 3:0.3721 4:0.85839999 #
1.057844939974163 1:0.85930002 2:0.90329999 3:0.54149997 4:0.83149999 #
-0.75560352855297352 1:0.82770002 2:0.84960002 3:0.86390001 4:0.97839999 #
0.45336211713178404 1:0.79729998 2:0.77609998 3:0.73540002 4:0.94270003 #
-0.75560352855297352 1:0.83829999 2:0.884 3:0.9691 4:0.97140002 #
0.75560352855297352 1:0.78250003 2:0.7482 3:0.50230002 4:0.79769999 #
0.15112070571059469 1:0.77749997 2:0.81489998 3:0.92860001 4:0.9752 #
0.15112070571059469 1:0.83590001 2:0.79290003 3:0.69580001 4:0.93089998 #
0.75560352855297352 1:0.81950003 2:0.77179998 3:0.68300003 4:0.94590002 #
-0.75560352855297352 1:0.84450001 2:0.93000001 3:1 4:1 #
-0.45336211713178404 1:0.82770002 2:0.84960002 3:0.86390001 4:0.97839999 #
-0.75560352855297352 1:0.79729998 2:0.77609998 3:0.73540002 4:0.94270003 #
0.75560352855297352 1:0.83829999 2:0.884 3:0.9691 4:0.97140002 #
-1.057844939974163 1:0.78250003 2:0.7482 3:0.50230002 4:0.79769999 #
0.45336211713178404 1:0.77749997 2:0.81489998 3:0.92860001 4:0.9752 #
-0.15112070571059469 1:0.83590001 2:0.79290003 3:0.69580001 4:0.93089998 #
0.15112070571059469 1:0.81950003 2:0.77179998 3:0.68300003 4:0.94590002 #
1.057844939974163 1:0.84450001 2:0.93000001 3:1 4:1 #
-0.45336211713178404 1:0.78469998 2:0.7748 3:0.61390001 4:0.8876 #
0.15112070571059469 1:0.78490001 2:0.74580002 3:0.35429999 4:0.89109999 #
-0.75560352855297352 1:0.85430002 2:0.84069997 3:0.68629998 4:0.9073 #
0.45336211713178404 1:0.77819997 2:0.76270002 3:0.50099999 4:0.77270001 #
1.057844939974163 1:0.77850002 2:0.78729999 3:0.5589 4:0.82080001 #
0.15112070571059469 1:0.83420002 2:0.80989999 3:0.60820001 4:0.87190002 #
0.45336211713178404 1:0.8283 2:0.76569998 3:0.48550001 4:0.87220001 #
-1.057844939974163 1:0.85149997 2:0.89520001 3:1 4:1 #
-1.057844939974163 1:0.78469998 2:0.7748 3:0.61390001 4:0.8876 #
-0.45336211713178404 1:0.78490001 2:0.74580002 3:0.35429999 4:0.89109999 #
0.15112070571059469 1:0.85430002 2:0.84069997 3:0.68629998 4:0.9073 #
-0.75560352855297352 1:0.77819997 2:0.76270002 3:0.50099999 4:0.77270001 #
-0.15112070571059469 1:0.77850002 2:0.78729999 3:0.5589 4:0.82080001 #
0.75560352855297352 1:0.83420002 2:0.80989999 3:0.60820001 4:0.87190002 #
1.057844939974163 1:0.8283 2:0.76569998 3:0.48550001 4:0.87220001 #
0.45336211713178404 1:0.85149997 2:0.89520001 3:1 4:1 #
0.043642927954019688 1:0.95359999 2:0.85280001 3:0.82770002 4:0.98140001 #
-0 1:0.95279998 2:0.84130001 3:0.7597 4:0.9806 #
0.13092878386205906 1:0.95840001 2:0.86330003 3:0.87330002 4:0.99040002 #
-0.043642927954019688 1:0.94800001 2:0.8301 3:0.75190002 4:0.97439998 #
-0.21821463977009847 1:0.93040001 2:0.86769998 3:0.8635 4:0.96969998 #
-0.087285855908039375 1:0.95069999 2:0.85509998 3:0.82160002 4:0.9813 #
0.21821463977009847 1:0.96100003 2:0.84310001 3:0.7852 4:0.98409998 #
-0.043642927954019688 1:0.94630003 2:0.89389998 3:1 4:1 #
0.043642927954019688 1:0.95359999 2:0.85280001 3:0.82770002 4:0.98140001 #
-0.087285855908039375 1:0.95279998 2:0.84130001 3:0.7597 4:0.9806 #
0.21821463977009847 1:0.95840001 2:0.86330003 3:0.87330002 4:0.99040002 #
-0.21821463977009847 1:0.94800001 2:0.8301 3:0.75190002 4:0.97439998 #
-0.30550049567813786 1:0.93040001 2:0.86769998 3:0.8635 4:0.96969998 #
-0.087285855908039375 1:0.95069999 2:0.85509998 3:0.82160002 4:0.9813 #
0.13092878386205906 1:0.96100003 2:0.84310001 3:0.7852 4:0.98409998 #
0.30550049567813786 1:0.94630003 2:0.89389998 3:1 4:1 #
-0.13092878386205906 1:0.84909999 2:0.85259998 3:0.84469998 4:0.90880001 #
-0.043642927954019688 1:0.80580002 2:0.76859999 3:0.44060001 4:0.9314 #
-0.21821463977009847 1:0.81080002 2:0.87059999 3:0.99910003 4:0.97320002 #
0.13092878386205906 1:0.77829999 2:0.79280001 3:0.4973 4:0.85720003 #
0.13092878386205906 1:0.82440001 2:0.85720003 3:0.86879998 4:0.9012 #
0.13092878386205906 1:0.82279998 2:0.81819999 3:0.59799999 4:0.88779998 #
0.21821463977009847 1:0.833 2:0.79790002 3:0.4815 4:0.91479999 #
-0.21821463977009847 1:0.84509999 2:0.89569998 3:0.99790001 4:0.921 #
-0.13092878386205906 1:0.84909999 2:0.85259998 3:0.84469998 4:0.90880001 #
-0.21821463977009847 1:0.80580002 2:0.76859999 3:0.44060001 4:0.9314 #
0.043642927954019688 1:0.81080002 2:0.87059999 3:0.99910003 4:0.97320002 #
-0.30550049567813786 1:0.77829999 2:0.79280001 3:0.4973 4:0.85720003 #
0.13092878386205906 1:0.82440001 2:0.85720003 3:0.86879998 4:0.9012 #
-0.043642927954019688 1:0.82279998 2:0.81819999 3:0.59799999 4:0.88779998 #
0.21821463977009847 1:0.833 2:0.79790002 3:0.4815 4:0.91479999 #
0.30550049567813786 1:0.84509999 2:0.89569998 3:0.99790001 4:0.921 #
0.043642927954019688 1:0.9357 2:0.85460001 3:0.89480001 4:0.96880001 #
-0.13092878386205906 1:0.94160002 2:0.84200001 3:0.73680001 4:0.96799999 #
0.30550049567813786 1:0.8563 2:0.86470002 3:0.99379998 4:0.94700003 #
0.13092878386205906 1:0.9339 2:0.83630002 3:0.7572 4:0.92500001 #
-0.043642927954019688 1:0.93049997 2:0.87019998 3:0.97409999 4:0.98140001 #
-0.043642927954019688 1:0.94450003 2:0.85769999 3:0.87400001 4:0.96390003 #
0.043642927954019688 1:0.94150001 2:0.8459 3:0.76679999 4:0.96689999 #
-0.30550049567813786 1:0.91970003 2:0.91850001 3:0.90979999 4:0.93769997 #
0.21821463977009847 1:0.9357 2:0.85460001 3:0.89480001 4:0.96880001 #
-0.21821463977009847 1:0.94160002 2:0.84200001 3:0.73680001 4:0.96799999 #
0.043642927954019688 1:0.8563 2:0.86470002 3:0.99379998 4:0.94700003 #
-0.13092878386205906 1:0.9339 2:0.83630002 3:0.7572 4:0.92500001 #
0.30550049567813786 1:0.93049997 2:0.87019998 3:0.97409999 4:0.98140001 #
0.13092878386205906 1:0.94450003 2:0.85769999 3:0.87400001 4:0.96390003 #
-0.043642927954019688 1:0.94150001 2:0.8459 3:0.76679999 4:0.96689999 #
-0.30550049567813786 1:0.91970003 2:0.91850001 3:0.90979999 4:0.93769997 #
0.17457171181607875 1:0.94770002 2:0.87480003 3:0.4903 4:0.83679998 #
-0.043642927954019688 1:0.95749998 2:0.84390002 3:0.6322 4:0.96170002 #
0.13092878386205906 1:0.91670001 2:0.85839999 3:0.45519999 4:0.82929999 #
-0.13092878386205906 1:0.95090002 2:0.8423 3:0.75150001 4:0.96499997 #
-0.26185756772411811 1:0.92640001 2:0.83130002 3:0.9497 4:0.9813 #
-0.13092878386205906 1:0.95480001 2:0.84600002 3:0.7902 4:0.96859998 #
0.043642927954019688 1:0.95730001 2:0.84509999 3:0.73379999 4:0.97299999 #
0.21821463977009847 1:0.9131 2:0.90539998 3:0.56739998 4:0.86360002 #
-0.087285855908039375 1:0.94770002 2:0.87480003 3:0.4903 4:0.83679998 #
0.21821463977009847 1:0.95749998 2:0.84390002 3:0.6322 4:0.96170002 #
-0.30550049567813786 1:0.91670001 2:0.85839999 3:0.45519999 4:0.82929999 #
0.043642927954019688 1:0.95090002 2:0.8423 3:0.75150001 4:0.96499997 #
-0.087285855908039375 1:0.92640001 2:0.83130002 3:0.9497 4:0.9813 #
0.13092878386205906 1:0.95480001 2:0.84600002 3:0.7902 4:0.96859998 #
0.30550049567813786 1:0.95730001 2:0.84509999 3:0.73379999 4:0.97299999 #
-0.21821463977009847 1:0.9131 2:0.90539998 3:0.56739998 4:0.86360002 #
0.043642927954019688 1:0.93690002 2:0.8441 3:0.71569997 4:0.89209998 #
0.087285855908039375 1:0.94160002 2:0.83560002 3:0.73089999 4:0.91229999 #
0.087285855908039375 1:0.92930001 2:0.88800001 3:0.74339998 4:0.92540002 #
0.21821463977009847 1:0.95069999 2:0.83939999 3:0.7482 4:0.90820003 #
-0.043642927954019688 1:0.92119998 2:0.85909998 3:0.7076 4:0.88859999 #
-0.21821463977009847 1:0.94700003 2:0.85979998 3:0.8739 4:0.96509999 #
0.043642927954019688 1:0.95819998 2:0.8409 3:0.78189999 4:0.94880003 #
-0.21821463977009847 1:0.92869997 2:0.90060002 3:0.99980003 4:0.99790001 #
-0.21821463977009847 1:0.93690002 2:0.8441 3:0.71569997 4:0.89209998 #
-0.087285855908039375 1:0.94160002 2:0.83560002 3:0.73089999 4:0.91229999 #
-0.087285855908039375 1:0.92930001 2:0.88800001 3:0.74339998 4:0.92540002 #
0.043642927954019688 1:0.95069999 2:0.83939999 3:0.7482 4:0.90820003 #
-0.30550049567813786 1:0.92119998 2:0.85909998 3:0.7076 4:0.88859999 #
0.21821463977009847 1:0.94700003 2:0.85979998 3:0.8739 4:0.96509999 #
0.13092878386205906 1:0.95819998 2:0.8409 3:0.78189999 4:0.94880003 #
0.30550049567813786 1:0.92869997 2:0.90060002 3:0.99980003 4:0.99790001 #
0.21821463977009847 1:0.9569 2:0.85100001 3:0.78719997 4:0.91479999 #
-0.30550049567813786 1:0.95539999 2:0.8373 3:0.68809998 4:0.93300003 #
0.30550049567813786 1:0.95899999 2:0.86799997 3:0.7985 4:0.91460001 #
0.043642927954019688 1:0.94940001 2:0.83700001 3:0.75040001 4:0.91869998 #
-0.21821463977009847 1:0.95740002 2:0.85110003 3:0.8021 4:0.91780001 #
-0.043642927954019688 1:0.95840001 2:0.84539998 3:0.78390002 4:0.91750002 #
-0.13092878386205906 1:0.96329999 2:0.83920002 3:0.72680002 4:0.93120003 #
0.13092878386205906 1:0.935 2:0.898 3:0.83829999 4:0.90319997 #
0.21821463977009847 1:0.9569 2:0.85100001 3:0.78719997 4:0.91479999 #
-0.30550049567813786 1:0.95539999 2:0.8373 3:0.68809998 4:0.93300003 #
0.30550049567813786 1:0.95899999 2:0.86799997 3:0.7985 4:0.91460001 #
0.043642927954019688 1:0.94940001 2:0.83700001 3:0.75040001 4:0.91869998 #
-0.21821463977009847 1:0.95740002 2:0.85110003 3:0.8021 4:0.91780001 #
-0.043642927954019688 1:0.95840001 2:0.84539998 3:0.78390002 4:0.91750002 #
-0.13092878386205906 1:0.96329999 2:0.83920002 3:0.72680002 4:0.93120003 #
0.13092878386205906 1:0.935 2:0.898 3:0.83829999 4:0.90319997 #
-0.043642927954019688 1:0.80199999 2:0.8075 3:0.58579999 4:0.78979999 #
0.043642927954019688 1:0.7899 2:0.80339998 3:0.72839999 4:0.82520002 #
-0 1:0.80440003 2:0.88940001 3:0.79720002 4:0.7543 #
0.13092878386205906 1:0.77340001 2:0.75690001 3:0.4989 4:0.67619997 #
-0.043642927954019688 1:0.7834 2:0.81349999 3:0.68699998 4:0.82389998 #
-0.043642927954019688 1:0.84869999 2:0.83990002 3:0.74860001 4:0.86140001 #
0.17457171181607875 1:0.82099998 2:0.79170001 3:0.59619999 4:0.80629998 #
-0.21821463977009847 1:0.82499999 2:0.91219997 3:0.77920002 4:0.88679999 #
-0.21821463977009847 1:0.80199999 2:0.8075 3:0.58579999 4:0.78979999 #
-0.13092878386205906 1:0.7899 2:0.80339998 3:0.72839999 4:0.82520002 #
0.087285855908039375 1:0.80440003 2:0.88940001 3:0.79720002 4:0.7543 #
-0.043642927954019688 1:0.77340001 2:0.75690001 3:0.4989 4:0.67619997 #
-0.30550049567813786 1:0.7834 2:0.81349999 3:0.68699998 4:0.82389998 #
0.30550049567813786 1:0.84869999 2:0.83990002 3:0.74860001 4:0.86140001 #
0.087285855908039375 1:0.82099998 2:0.79170001 3:0.59619999 4:0.80629998 #
0.21821463977009847 1:0.82499999 2:0.91219997 3:0.77920002 4:0.88679999 #
0.13092878386205906 1:0.73269999 2:0.77670002 3:0.53060001 4:0.82590002 #
-0.13092878386205906 1:0.77770001 2:0.76069999 3:0.4508 4:0.81660002 #
-0.043642927954019688 1:0.77590001 2:0.84579998 3:0.4763 4:0.7744 #
0.21821463977009847 1:0.76920003 2:0.7586 3:0.5007 4:0.84670001 #
-0.043642927954019688 1:0.73989999 2:0.76660001 3:0.5424 4:0.77759999 #
0.13092878386205906 1:0.8233 2:0.78509998 3:0.56770003 4:0.8556 #
-0.13092878386205906 1:0.80669999 2:0.77359998 3:0.51190001 4:0.8495 #
-0.13092878386205906 1:0.83639997 2:0.8908 3:0.61129999 4:0.7974 #
-0.13092878386205906 1:0.73269999 2:0.77670002 3:0.53060001 4:0.82590002 #
-0.21821463977009847 1:0.77770001 2:0.76069999 3:0.4508 4:0.81660002 #
-0.043642927954019688 1:0.77590001 2:0.84579998 3:0.4763 4:0.7744 #
0.13092878386205906 1:0.76920003 2:0.7586 3:0.5007 4:0.84670001 #
-0.30550049567813786 1:0.73989999 2:0.76660001 3:0.5424 4:0.77759999 #
0.30550049567813786 1:0.8233 2:0.78509998 3:0.56770003 4:0.8556 #
0.043642927954019688 1:0.80669999 2:0.77359998 3:0.51190001 4:0.8495 #
0.21821463977009847 1:0.83639997 2:0.8908 3:0.61129999 4:0.7974 #
-0.13092878386205906 1:0.94050002 2:0.84490001 3:0.7475 4:0.90259999 #
-0.13092878386205906 1:0.93919998 2:0.83859998 3:0.72799999 4:0.8926 #
0.043642927954019688 1:0.92049998 2:0.88569999 3:0.75980002 4:0.8854 #
0.043642927954019688 1:0.94730002 2:0.83840001 3:0.75019997 4:0.90499997 #
-0.21821463977009847 1:0.91640002 2:0.85039997 3:0.75169998 4:0.91509998 #
0.17457171181607875 1:0.95200002 2:0.8549 3:0.77399999 4:0.926 #
0.30550049567813786 1:0.95109999 2:0.84170002 3:0.72479999 4:0.903 #
-0.087285855908039375 1:0.95039999 2:0.89289999 3:0.81419998 4:0.88770002 #
-0.13092878386205906 1:0.94050002 2:0.84490001 3:0.7475 4:0.90259999 #
-0.21821463977009847 1:0.93919998 2:0.83859998 3:0.72799999 4:0.8926 #
-0.043642927954019688 1:0.92049998 2:0.88569999 3:0.75980002 4:0.8854 #
0.043642927954019688 1:0.94730002 2:0.83840001 3:0.75019997 4:0.90499997 #
-0.30550049567813786 1:0.91640002 2:0.85039997 3:0.75169998 4:0.91509998 #
0.17457171181607875 1:0.95200002 2:0.8549 3:0.77399999 4:0.926 #
0.30550049567813786 1:0.95109999 2:0.84170002 3:0.72479999 4:0.903 #
0.17457171181607875 1:0.95039999 2:0.89289999 3:0.81419998 4:0.88770002 #
-0.043642927954019688 1:0.82309997 2:0.80690002 3:0.68169999 4:0.91409999 #
-0.043642927954019688 1:0.8362 2:0.79049999 3:0.50880003 4:0.93480003 #
-0.21821463977009847 1:0.78390002 2:0.88770002 3:1 4:0.99739999 #
0.30550049567813786 1:0.76630002 2:0.78280002 3:0.5165 4:0.81770003 #
0.21821463977009847 1:0.78399998 2:0.78380001 3:0.76300001 4:0.94630003 #
0.043642927954019688 1:0.83270001 2:0.82700002 3:0.85000002 4:0.96390003 #
-0 1:0.83929998 2:0.7967 3:0.57889998 4:0.94749999 #
-0.26185756772411811 1:0.86589998 2:0.8969 3:1 4:1 #
-0.13092878386205906 1:0.82309997 2:0.80690002 3:0.68169999 4:0.91409999 #
-0.043642927954019688 1:0.8362 2:0.79049999 3:0.50880003 4:0.93480003 #
-0.21821463977009847 1:0.78390002 2:0.88770002 3:1 4:0.99739999 #
-0.30550049567813786 1:0.76630002 2:0.78280002 3:0.5165 4:0.81770003 #
0.043642927954019688 1:0.78399998 2:0.78380001 3:0.76300001 4:0.94630003 #
0.30550049567813786 1:0.83270001 2:0.82700002 3:0.85000002 4:0.96390003 #
0.17457171181607875 1:0.83929998 2:0.7967 3:0.57889998 4:0.94749999 #
0.17457171181607875 1:0.86589998 2:0.8969 3:1 4:1 #
0.043642927954019688 1:0.9242 2:0.86849999 3:0.84170002 4:0.81730002 #
-0.043642927954019688 1:0.91500002 2:0.84509999 3:0.7798 4:0.84219998 #
0.30550049567813786 1:0.84100002 2:0.90560001 3:0.68720001 4:0.82520002 #
0.043642927954019688 1:0.9285 2:0.82779998 3:0.75089997 4:0.84280002 #
-0.13092878386205906 1:0.91119999 2:0.87129998 3:0.78380001 4:0.83279997 #
-0.21821463977009847 1:0.94569999 2:0.86229998 3:0.83469999 4:0.85170001 #
0.13092878386205906 1:0.93849999 2:0.85000002 3:0.82690001 4:0.84759998 #
-0.13092878386205906 1:0.93129998 2:0.90009999 3:0.90460002 4:0.83819997 #
0.043642927954019688 1:0.9242 2:0.86849999 3:0.84170002 4:0.81730002 #
-0.21821463977009847 1:0.91500002 2:0.84509999 3:0.7798 4:0.84219998 #
-0.13092878386205906 1:0.84100002 2:0.90560001 3:0.68720001 4:0.82520002 #
-0.043642927954019688 1:0.9285 2:0.82779998 3:0.75089997 4:0.84280002 #
-0.30550049567813786 1:0.91119999 2:0.87129998 3:0.78380001 4:0.83279997 #
0.13092878386205906 1:0.94569999 2:0.86229998 3:0.83469999 4:0.85170001 #
0.21821463977009847 1:0.93849999 2:0.85000002 3:0.82690001 4:0.84759998 #
0.30550049567813786 1:0.93129998 2:0.90009999 3:0.90460002 4:0.83819997 #
-0.30550049567813786 1:0.9368 2:0.85219997 3:0.91289997 4:0.96749997 #
-0.13092878386205906 1:0.94630003 2:0.84619999 3:0.85729998 4:0.96560001 #
0.13092878386205906 1:0.94989997 2:0.88620001 3:0.95599997 4:0.95560002 #
0.13092878386205906 1:0.9501 2:0.82450002 3:0.75129998 4:0.96390003 #
-0.13092878386205906 1:0.93159997 2:0.8567 3:0.9418 4:0.95349997 #
-0.043642927954019688 1:0.95829999 2:0.85619998 3:0.88239998 4:0.96079999 #
0.13092878386205906 1:0.96179998 2:0.84609997 3:0.83590001 4:0.97240001 #
0.21821463977009847 1:0.95349997 2:0.89020002 3:0.958 4:0.95770001 #
-0.30550049567813786 1:0.9368 2:0.85219997 3:0.91289997 4:0.96749997 #
-0.13092878386205906 1:0.94630003 2:0.84619999 3:0.85729998 4:0.96560001 #
0.21821463977009847 1:0.94989997 2:0.88620001 3:0.95599997 4:0.95560002 #
-0.21821463977009847 1:0.9501 2:0.82450002 3:0.75129998 4:0.96390003 #
-0.043642927954019688 1:0.93159997 2:0.8567 3:0.9418 4:0.95349997 #
0.043642927954019688 1:0.95829999 2:0.85619998 3:0.88239998 4:0.96079999 #
0.13092878386205906 1:0.96179998 2:0.84609997 3:0.83590001 4:0.97240001 #
0.30550049567813786 1:0.95349997 2:0.89020002 3:0.958 4:0.95770001 #
0.043642927954019688 1:0.94529998 2:0.8193 3:0.77569997 4:0.9612 #
0.043642927954019688 1:0.95179999 2:0.80849999 3:0.59420002 4:0.99730003 #
-0.30550049567813786 1:0.91570002 2:0.88080001 3:0.88690001 4:0.9752 #
-0.043642927954019688 1:0.9522 2:0.80980003 3:0.7507 4:0.95969999 #
0.13092878386205906 1:0.93000001 2:0.82749999 3:0.74529999 4:0.94620001 #
0.13092878386205906 1:0.96340001 2:0.84920001 3:0.82370001 4:0.97119999 #
0.21821463977009847 1:0.9605 2:0.81760001 3:0.65259999 4:0.99379998 #
-0.21821463977009847 1:0.93400002 2:0.90350002 3:0.99970001 4:0.99949998 #
-0.043642927954019688 1:0.94529998 2:0.8193 3:0.77569997 4:0.9612 #
0.043642927954019688 1:0.95179999 2:0.80849999 3:0.59420002 4:0.99730003 #
-0.30550049567813786 1:0.91570002 2:0.88080001 3:0.88690001 4:0.9752 #
-0.13092878386205906 1:0.9522 2:0.80980003 3:0.7507 4:0.95969999 #
-0.21821463977009847 1:0.93000001 2:0.82749999 3:0.74529999 4:0.94620001 #
0.21821463977009847 1:0.96340001 2:0.84920001 3:0.82370001 4:0.97119999 #
0.30550049567813786 1:0.9605 2:0.81760001 3:0.65259999 4:0.99379998 #
0.13092878386205906 1:0.93400002 2:0.90350002 3:0.99970001 4:0.99949998 #
0.043642927954019688 1:0.94309998 2:0.82770002 3:0.77689999 4:0.92479998 #
-0.043642927954019688 1:0.92909998 2:0.81849998 3:0.69080001 4:0.97009999 #
-0.13092878386205906 1:0.91960001 2:0.88249999 3:0.95279998 4:0.99479997 #
0.21821463977009847 1:0.95349997 2:0.82560003 3:0.7507 4:0.94999999 #
-0.13092878386205906 1:0.91970003 2:0.82870001 3:0.77899998 4:0.9461 #
